svm_type c_svc
kernel_type rbf
gamma 0.007
nr_class 2
total_sv 25
rho -0.388074
label 0 1
probA -4.13801
probB 0.579331
nr_sv 13 12
SV
32 18:0.335714 19:-0.543004 20:-0.190468 21:-0.301205
32 18:0.328571 19:-0.495481 20:-0.181067 21:-0.253012
11.20014614328959 18:0.45 19:-0.2187 20:1 21:-0.493976
32 18:0.421429 19:-0.236447 20:0.902589 21:-0.325301
2.923961942824317 18:0.257143 19:-0.36349 20:-0.584909 21:-0.349398
32 18:0.221429 19:-0.334154 20:-0.436818 21:-0.373494
32 18:0.185714 19:-0.32184 20:-0.295742 21:-0.39759
32 18:0.164286 19:-0.308078 20:-0.182688 21:-0.373494
32 18:0.142857 19:-0.294315 20:-0.114344 21:-0.325301
32 18:0.1 19:-0.287282 20:-0.0911669 21:-0.277108
32 18:0.0571429 19:-0.2671 20:-0.117224 21:-0.301205
32 18:0.0142857 19:-0.247668 20:-0.117812 21:-0.373494
32 18:-0.0428571 19:-0.205851 20:-0.0972116 21:-0.445783
-32 18:-0.0785714 19:-0.201775 20:-0.0637292 21:-0.493976
-32 18:-0.114286 19:-0.196829 20:-0.0210384 21:-0.46988
-32 18:-0.142857 19:-0.191135 20:0.0297161 21:-0.445783
-32 18:-0.171429 19:-0.257355 20:0.0859042 21:-0.39759
-32 18:-0.2 19:-0.325494 20:0.106765 21:-0.373494
-32 18:-0.257143 19:-0.395186 20:0.0894975 21:-0.349398
-32 18:-0.292857 19:-0.458149 20:0.0282633 21:-0.349398
-32 18:-0.328571 19:-0.533536 20:-0.0171055 21:-0.373494
-32 18:-0.371429 19:-0.608173 20:-0.0415839 21:-0.39759
-32 18:-0.4 19:-0.682811 20:-0.0426218 21:-0.39759
-14.12410808611391 18:-0.428571 19:-0.781507 20:-0.0469019 21:-0.373494
-32 18:-0.392857 19:-0.948605 20:-0.0589705 21:-0.180723 