svm_type c_svc
kernel_type rbf
gamma 0.16666666666666666
nr_class 2
total_sv 713
rho -0.5530655075484736
label 0 1
nr_sv 524 189
SV
0.11970386936647036 1:-65.0 2:-83.94708995 3:1.0 4:2.019203182 5:7.0 6:0.222222222
0.02158460985862269 1:-70.0 2:-85.9513468 3:1.0 4:0.22980094 5:5.0 6:0.45959596
0.041186336013643736 1:-58.0 2:-84.30550745 3:1.0 4:2.74604244 5:20.0 6:5.266025641
0.20703291320987985 1:-58.5 2:-83.86056697 3:1.0 4:3.577494116 5:5.0 6:5.32505176
0.23441731164964622 1:-61.0 2:-82.28479853 3:1.0 4:4.982124152 5:18.0 6:7.045787546
0.0403009045129709 1:-52.0 2:-78.76190476 3:1.0 4:0.0 5:0.0 6:0.0
0.18540080976930792 1:-48.45454545 2:-80.94991087 3:1.0 4:0.040967981 5:10.0 6:0.192156863
0.20755112558550812 1:-58.0 2:-81.13333333 3:1.0 4:0.0 5:0.0 6:0.0
0.31320808001447686 1:-64.0 2:-82.16666667 3:1.0 4:1.461354014 5:12.0 6:2.066666667
0.12856934465917025 1:-70.0 2:-83.2 3:1.0 4:0.0 5:0.0 6:0.0
0.3994755948086809 1:-58.0 2:-82.86315789 3:1.0 4:0.476366674 5:24.0 6:0.673684211
0.5399903833363332 1:-51.66666667 2:-81.70352564 3:1.0 4:1.299468034 5:4.0 6:2.418269231
0.19144405966648484 1:-56.33333333 2:-84.05833333 3:1.0 4:0.813973024 5:21.0 6:1.6125
0.04405634843179113 1:-56.33333333 2:-82.94027778 3:1.0 4:2.708065158 5:1.0 6:4.354166667
0.042000836643499434 1:-57.66666667 2:-82.66944444 3:1.0 4:2.557401206 5:16.0 6:1.425
1.4904433820742395 1:-51.0 2:-80.47142857 3:1.0 4:0.631971325 5:3.0 6:1.057142857
7.527974405050921 1:-49.66666667 2:-80.78888889 3:1.0 4:2.938316474 5:5.0 6:3.533333333
5.899594136146762 1:-49.66666667 2:-82.45238095 3:1.0 4:1.40395457 5:6.0 6:2.642857143
0.2202013387210179 1:-53.66666667 2:-84.92261905 3:1.0 4:1.948011589 5:11.0 6:3.642857143
0.1749911771165324 1:-52.0 2:-83.23585434 3:1.0 4:3.422931732 5:12.0 6:6.378151261
0.06613118598748806 1:-54.66666667 2:-82.73809524 3:1.0 4:3.692472578 5:10.0 6:6.285714286
0.16352452565798709 1:-60.33333333 2:-85.79285714 3:1.0 4:2.266245209 5:16.0 6:3.821428571
0.44286053006367376 1:-52.5 2:-80.00346639 3:1.0 4:6.316018752 5:21.0 6:13.8
1.0371867442217788 1:-46.75 2:-77.12534139 3:1.0 4:4.218188173 5:2.0 6:7.491071429
1.0900537200929001 1:-49.0 2:-77.19583333 3:1.0 4:4.733793625 5:5.0 6:9.1
4.888504298831745 1:-49.25 2:-77.87599206 3:1.0 4:0.701003604 5:10.0 6:0.722222222
8.203180288712696 1:-50.75 2:-77.86502715 3:1.0 4:0.702235218 5:5.0 6:0.039473684
2.328882670958061 1:-52.0 2:-78.5700362 3:1.0 4:1.968888647 5:8.0 6:3.698412698
18.72907156727174 1:-49.33333333 2:-81.09398148 3:1.0 4:1.820343466 5:0.0 6:3.4625
0.001601358358908753 1:-52.0 2:-82.23715278 3:1.0 4:2.726987839 5:11.0 6:5.979166667
0.1611014928442169 1:-71.0 2:-87.02683179 3:1.0 4:0.227007691 5:13.0 6:0.0
0.1742241406540465 1:-66.5 2:-88.11915584 3:1.0 4:1.242962379 5:7.0 6:0.312121212
0.2706196210006081 1:-62.5 2:-86.97436418 3:1.0 4:3.064246618 5:19.0 6:5.931547619
0.9804814502460373 1:-47.75 2:-79.01319444 3:1.0 4:5.202986329 5:2.0 6:8.097222222
0.43229798423392135 1:-61.66666667 2:-83.79754902 3:1.0 4:0.277494714 5:28.0 6:0.467647059
0.4471099344692651 1:-51.25 2:-82.60405844 3:1.0 4:1.480691337 5:54.0 6:0.35
0.4463330773520441 1:-42.0 2:-84.003663 3:1.0 4:3.148353247 5:4.0 6:6.296703297
0.44650069755946764 1:-43.66666667 2:-85.73244147 3:1.0 4:1.599763827 5:27.0 6:2.043478261
0.1645636376635897 1:-51.25 2:-85.16599777 3:1.0 4:1.716144601 5:0.0 6:3.353846154
0.05237628874829557 1:-54.0 2:-83.74908425 3:1.0 4:0.526852123 5:8.0 6:0.032967033
0.014931939411376507 1:-58.66666667 2:-84.15934066 3:1.0 4:0.654676728 5:10.0 6:0.335164835
24.652536204937338 1:-50.75 2:-80.22752248 3:1.0 4:1.840785307 5:0.0 6:2.987012987
7.2291509241152285 1:-51.0 2:-79.34731935 3:1.0 4:1.234762541 5:0.0 6:2.223776224
0.18554172293781387 1:-61.75 2:-83.45953526 3:1.0 4:1.680109625 5:18.0 6:3.979166667
0.28122462082928695 1:-64.66666667 2:-83.58468615 3:1.0 4:2.600419354 5:0.0 6:5.085227273
0.03089077156615568 1:-61.5 2:-84.10512821 3:1.0 4:1.198848889 5:13.0 6:0.266666667
1.359469645268786 1:-52.25 2:-81.64583333 3:1.0 4:1.199322821 5:3.0 6:2.886363636
0.1538145011801541 1:-56.0 2:-85.01428571 3:1.0 4:2.144507301 5:4.0 6:3.742857143
0.01569103779795033 1:-55.0 2:-84.59305556 3:1.0 4:0.987915993 5:6.0 6:0.3125
0.09847589544410484 1:-57.0 2:-84.9035409 3:1.0 4:2.01788729 5:1.0 6:3.051282051
0.09223887068184743 1:-57.66666667 2:-85.51659452 3:1.0 4:0.99553296 5:9.0 6:1.974025974
0.059839620786289356 1:-58.75 2:-83.0641317 3:1.0 4:2.73856641 5:3.0 6:2.019230769
0.05959291407208975 1:-56.25 2:-82.98371212 3:1.0 4:2.81403338 5:3.0 6:0.0
5.75059555983061 1:-50.25 2:-78.54444444 3:1.0 4:1.100168337 5:5.0 6:0.711111111
0.24128373126642774 1:-61.0 2:-83.21323529 3:1.0 4:4.294633833 5:6.0 6:6.073529412
0.24967823344114595 1:-63.0 2:-84.14215686 3:1.0 4:3.436659093 5:9.0 6:5.823529412
0.0627007697410271 1:-66.66666667 2:-86.51013898 3:1.0 4:1.458517582 5:14.0 6:2.30075188
0.09885479034485685 1:-60.0 2:-84.52134347 3:1.0 4:3.196584937 5:15.0 6:6.368983957
1.3127909768265158 1:-51.0 2:-80.55555556 3:1.0 4:0.93665085 5:7.0 6:1.833333333
24.199361190924705 1:-52.0 2:-80.66880342 3:1.0 4:1.124709279 5:5.0 6:1.58974359
0.07510516070825238 1:-56.66666667 2:-80.4001554 3:1.0 4:1.798134251 5:7.0 6:3.594405594
0.02653983278642983 1:-60.66666667 2:-82.35470085 3:1.0 4:2.08609613 5:5.0 6:4.166666667
0.18967831714072766 1:-58.75 2:-81.14583333 3:1.0 4:0.125 5:4.0 6:0.25
0.19241180568960134 1:-56.66666667 2:-81.21464646 3:1.0 4:1.470015846 5:7.0 6:1.416666667
0.07121080151456786 1:-57.0 2:-80.88888889 3:1.0 4:0.458964212 5:3.0 6:0.916666667
0.10195909841738038 1:-62.25 2:-83.5643315 3:1.0 4:2.138084493 5:10.0 6:4.654761905
0.08761262363819174 1:-59.33333333 2:-83.06272894 3:1.0 4:2.747649811 5:9.0 6:5.490384615
0.5148017572833979 1:-53.66666667 2:-81.5542735 3:1.0 4:1.612806415 5:3.0 6:2.983333333
4.679140113736089 1:-51.33333333 2:-80.53846154 3:1.0 4:2.272813339 5:2.0 6:4.384615385
10.491054493106839 1:-49.0 2:-81.92216117 3:1.0 4:1.89426281 5:7.0 6:3.480769231
0.03881194667215349 1:-59.66666667 2:-85.4915873 3:1.0 4:1.180041539 5:16.0 6:1.945238095
0.16784532837615238 1:-48.5 2:-79.58940058 3:1.0 4:2.338148973 5:13.0 6:3.68128655
5.936211102842977 1:-50.33333333 2:-78.74156545 3:1.0 4:1.548134853 5:4.0 6:0.698380567
0.0715237487452964 1:-59.66666667 2:-83.0223064 3:1.0 4:3.513295258 5:17.0 6:6.238636364
0.1289430606547576 1:-61.25 2:-83.9854798 3:1.0 4:3.455378567 5:18.0 6:7.90530303
4.357607051126156 1:-45.33333333 2:-79.70886752 3:1.0 4:0.741043963 5:1.0 6:1.331730769
7.060239747340142 1:-49.0 2:-80.71123321 3:1.0 4:1.781357824 5:3.0 6:3.261904762
0.14078452511098644 1:-73.33333333 2:-84.61324111 3:1.0 4:1.924137375 5:6.0 6:3.823913043
0.3042099005721065 1:-56.75 2:-80.68659205 3:1.0 4:4.895895917 5:23.0 6:8.690283401
30.589980210553886 1:-48.33333333 2:-78.25146199 3:1.0 4:0.635546343 5:1.0 6:0.754385965
0.1371483207641526 1:-51.33333333 2:-81.82592593 3:1.0 4:3.557227616 5:15.0 6:7.111111111
0.35912649897619786 1:-65.75 2:-85.10314815 3:1.0 4:2.370486369 5:32.0 6:4.448148148
0.2603615820860484 1:-60.5 2:-85.52964744 3:1.0 4:1.537827894 5:23.0 6:3.365384615
0.35039894937091515 1:-61.0 2:-82.28765528 3:1.0 4:2.573150129 5:25.0 6:5.139751553
0.27244364973748103 1:-69.66666667 2:-83.84609684 3:1.0 4:1.241785759 5:15.0 6:1.880681818
0.024812339910296976 1:-70.0 2:-87.90126595 3:1.0 4:0.944922959 5:12.0 6:2.186602871
0.42221903111078435 1:-75.5 2:-88.59753788 3:1.0 4:0.688910746 5:25.0 6:1.053030303
0.21905953726637567 1:-78.33333333 2:-89.01161616 3:1.0 4:0.350901807 5:6.0 6:0.018181818
0.2971894544053546 1:-78.33333333 2:-89.12350427 3:1.0 4:0.309450992 5:10.0 6:0.262820513
0.31257565748310656 1:-77.0 2:-88.44757835 3:1.0 4:0.933766193 5:12.0 6:1.411111111
0.35003568672256263 1:-80.5 2:-88.54818376 3:1.0 4:0.788520977 5:1.0 6:0.353846154
0.2993119571881019 1:-80.25 2:-87.86686508 3:1.0 4:1.173945614 5:7.0 6:0.96031746
0.047080212186049825 1:-75.66666667 2:-87.55639098 3:1.0 4:0.239515616 5:0.0 6:0.192982456
0.17813369633144058 1:-77.0 2:-85.84231394 3:1.0 4:1.906242013 5:2.0 6:4.067307692
0.04376128744631574 1:-72.33333333 2:-87.92539683 3:1.0 4:0.189062212 5:4.0 6:0.342857143
0.06428108988842736 1:-73.0 2:-88.56 3:1.0 4:0.532666249 5:5.0 6:1.04
0.04097779236446866 1:-72.0 2:-88.21869489 3:1.0 4:0.540028246 5:0.0 6:0.296296296
0.22943313118206063 1:-64.0 2:-85.06694462 3:1.0 4:3.620817261 5:19.0 6:6.964673913
0.10461829878539515 1:-57.0 2:-80.65733574 3:1.0 4:4.340895167 5:9.0 6:6.932748538
0.5734638950401549 1:-65.0 2:-80.18181818 3:1.0 4:4.456915469 5:0.0 6:6.303030303
0.441438918480215 1:-69.75 2:-82.99170274 3:1.0 4:4.168762677 5:5.0 6:9.358585859
0.049368214440425974 1:-71.5 2:-85.62886383 3:1.0 4:1.809401298 5:7.0 6:4.245614035
0.07448062564049865 1:-61.0 2:-85.1905929 3:1.0 4:0.781342502 5:15.0 6:1.079365079
0.09885860657561431 1:-67.75 2:-87.94587176 3:1.0 4:0.682853804 5:0.0 6:1.075757576
0.012711464004757932 1:-65.66666667 2:-87.73239538 3:1.0 4:1.027547571 5:7.0 6:1.859090909
0.27030622378502406 1:-59.33333333 2:-86.58015873 3:1.0 4:1.643064744 5:19.0 6:3.285714286
0.09387938111411516 1:-53.25 2:-84.10314389 3:1.0 4:0.591652842 5:10.0 6:1.30952381
0.012811117697450653 1:-57.0 2:-84.38029879 3:1.0 4:1.173345066 5:0.0 6:1.968627451
0.03941488712446805 1:-57.5 2:-86.14242424 3:1.0 4:0.299800975 5:4.0 6:0.448484848
0.1344742353620655 1:-60.0 2:-86.48594543 3:1.0 4:0.388115612 5:1.0 6:0.171122995
0.10422181295256008 1:-58.33333333 2:-85.6634346 3:1.0 4:1.711914057 5:6.0 6:3.208791209
0.016070790797904442 1:-59.5 2:-84.88939951 3:1.0 4:2.475075674 5:7.0 6:2.254901961
0.0024794181429023147 1:-63.25 2:-84.51264881 3:1.0 4:2.483739132 5:13.0 6:0.907738095
0.05608483586745129 1:-68.0 2:-86.46031746 3:1.0 4:0.441333357 5:13.0 6:0.726190476
0.2199151770030332 1:-65.0 2:-85.95833333 3:1.0 4:0.438985573 5:17.0 6:0.5
0.35388280840356545 1:-57.75 2:-83.46534091 3:1.0 4:2.879241616 5:26.0 6:5.525
0.2318606804697598 1:-58.33333333 2:-84.74305556 3:1.0 4:3.783884719 5:20.0 6:7.370833333
0.18676608774683195 1:-57.5 2:-84.67941176 3:1.0 4:2.946604795 5:8.0 6:1.615686275
0.016281951910033413 1:-54.5 2:-83.44052288 3:1.0 4:3.367494312 5:21.0 6:7.155555556
3.1472301958373285 1:-47.66666667 2:-78.13919414 3:1.0 4:1.140124233 5:4.0 6:1.725274725
0.3701076106044798 1:-54.5 2:-81.72551362 3:1.0 4:5.262171205 5:19.0 6:9.913043478
0.2746330131751477 1:-60.25 2:-84.10051362 3:1.0 4:5.743810543 5:20.0 6:11.65384615
0.32755144938527114 1:-63.0 2:-87.03964194 3:1.0 4:2.894497536 5:13.0 6:5.207161125
0.35155355446221986 1:-58.33333333 2:-83.08714597 3:1.0 4:5.747256145 5:18.0 6:11.44444444
4.039318053087686 1:-47.75 2:-79.77042484 3:1.0 4:2.524481601 5:4.0 6:3.722222222
6.326952539296673 1:-47.75 2:-79.70588235 3:1.0 4:0.473032866 5:0.0 6:1.0
12.22949533693903 1:-47.33333333 2:-79.61607143 3:1.0 4:0.644529076 5:2.0 6:1.285714286
0.28289611393816355 1:-53.0 2:-81.10325092 3:1.0 4:2.074102176 5:18.0 6:3.899038462
0.09531374373056509 1:-62.25 2:-85.83482906 3:1.0 4:1.744264628 5:11.0 6:2.138461538
0.0910477895400516 1:-58.33333333 2:-84.72380952 3:1.0 4:2.818355771 5:12.0 6:5.428571429
0.11574402551377513 1:-59.25 2:-84.40025155 3:1.0 4:2.719955542 5:10.0 6:5.375
0.10263127484477118 1:-63.33333333 2:-87.18231225 3:1.0 4:1.194689266 5:7.0 6:2.342391304
0.14192885401476873 1:-69.0 2:-88.0770595 3:1.0 4:0.137925522 5:8.0 6:0.1
0.34823861312268367 1:-75.66666667 2:-88.0503268 3:1.0 4:0.867580774 5:21.0 6:1.715686275
0.26359773846372136 1:-73.25 2:-88.14037698 3:1.0 4:0.571119329 5:20.0 6:0.452380952
0.3596661355579495 1:-68.25 2:-86.24912281 3:1.0 4:3.682796721 5:14.0 6:7.266666667
0.08656184109910935 1:-62.75 2:-84.66088751 3:1.0 4:4.029575314 5:22.0 6:6.247678019
0.19346163868416943 1:-60.75 2:-85.33597928 3:1.0 4:4.05049494 5:23.0 6:8.017045455
0.4259013341493956 1:-66.0 2:-87.66138689 3:1.0 4:2.767796143 5:26.0 6:6.150895141
0.12301671426732527 1:-75.0 2:-89.56455863 3:1.0 4:1.033841168 5:1.0 6:2.045454545
0.0881537362819438 1:-74.0 2:-89.77971014 3:1.0 4:0.700881612 5:1.0 6:0.639130435
0.1374010472711526 1:-74.25 2:-89.00923141 3:1.0 4:0.399453383 5:3.0 6:0.177777778
0.25094354616999465 1:-76.0 2:-89.11013645 3:1.0 4:0.622431684 5:6.0 6:1.210526316
0.22738205717946283 1:-76.66666667 2:-89.44346979 3:1.0 4:0.177962674 5:1.0 6:0.143274854
0.31820985296354865 1:-76.0 2:-87.88458647 3:1.0 4:2.079932963 5:0.0 6:4.431578947
0.008002368959359239 1:-76.0 2:-87.12886564 3:1.0 4:1.757822723 5:4.0 6:2.812356979
0.018158126057467736 1:-74.66666667 2:-86.23188406 3:1.0 4:0.446226212 5:8.0 6:0.869565217
0.09145263414710458 1:-73.0 2:-85.89882246 3:1.0 4:0.384703834 5:0.0 6:0.297826087
0.052991939541682055 1:-73.33333333 2:-85.13094099 3:1.0 4:0.238117168 5:1.0 6:0.098086124
0.16622859921744557 1:-67.0 2:-84.70848485 3:1.0 4:0.90816377 5:18.0 6:1.72
0.17247812884887126 1:-63.0 2:-84.85294118 3:1.0 4:1.806683478 5:14.0 6:0.12
0.0478466861121587 1:-71.0 2:-85.42765432 3:1.0 4:1.903037977 5:2.0 6:2.557037037
0.026436850960129803 1:-70.33333333 2:-84.66765432 3:1.0 4:0.764071591 5:0.0 6:1.44
0.15676975839721285 1:-69.66666667 2:-83.9999223 3:1.0 4:1.174019462 5:10.0 6:2.251515152
0.10950671325322231 1:-72.75 2:-84.09085082 3:1.0 4:0.975680845 5:6.0 6:0.56969697
0.19090800384992082 1:-74.66666667 2:-84.13109354 3:1.0 4:1.348130802 5:10.0 6:2.666007905
0.08096352777498635 1:-76.33333333 2:-86.2431746 3:1.0 4:0.388638338 5:5.0 6:0.2
0.23918256774369373 1:-73.25 2:-86.26422659 3:1.0 4:0.286676835 5:18.0 6:0.403478261
0.00843037939667079 1:-68.75 2:-86.21834424 3:1.0 4:0.280866891 5:15.0 6:0.438914027
0.10227875759804779 1:-62.66666667 2:-87.32899897 3:1.0 4:1.216100542 5:4.0 6:2.423529412
0.1214366445738245 1:-64.25 2:-87.22239819 3:1.0 4:1.532908686 5:0.0 6:3.369230769
0.26189121182045655 1:-68.5 2:-87.22881944 3:1.0 4:0.924514231 5:19.0 6:1.744444444
0.06532421549806147 1:-69.25 2:-86.81215278 3:1.0 4:1.39698353 5:0.0 6:1.4875
0.024040520974309445 1:-64.25 2:-86.18526786 3:1.0 4:0.837427496 5:12.0 6:1.928571429
0.0846956389944581 1:-70.66666667 2:-87.00555556 3:1.0 4:0.408361677 5:15.0 6:0.4
0.03625560830909996 1:-65.75 2:-85.41360723 3:1.0 4:2.681365838 5:16.0 6:5.871212121
0.3049581155367084 1:-62.5 2:-82.59277389 3:1.0 4:4.893941898 5:20.0 6:10.86666667
0.2988016450104288 1:-56.5 2:-84.04827366 3:1.0 4:3.23990122 5:23.0 6:3.630434783
0.05606315520086963 1:-76.66666667 2:-85.96245614 3:1.0 4:0.879603495 5:10.0 6:1.552631579
0.07549751185496 1:-76.25 2:-85.55715318 3:1.0 4:2.142963692 5:8.0 6:2.161654135
0.23883422951239627 1:-74.0 2:-84.12374687 3:1.0 4:1.231776947 5:0.0 6:2.42481203
0.2398967431436922 1:-66.25 2:-86.16706147 3:1.0 4:1.466599639 5:23.0 6:2.756521739
0.07427999279811566 1:-62.0 2:-86.5158371 3:1.0 4:0.848907852 5:0.0 6:1.624434389
0.07440468892901095 1:-69.25 2:-87.62755848 3:1.0 4:0.712948494 5:12.0 6:0.503289474
0.045089528161921286 1:-70.0 2:-87.05341131 3:1.0 4:1.539088113 5:11.0 6:3.044444444
0.04487187617030203 1:-71.75 2:-87.58387446 3:1.0 4:0.26405374 5:10.0 6:0.545454545
7.363172359248902 1:-52.75 2:-78.20919724 3:1.0 4:0.69401584 5:4.0 6:1.570707071
0.008158627590636435 1:-63.33333333 2:-85.50840336 3:1.0 4:2.202510428 5:8.0 6:4.357142857
0.08519521884016354 1:-71.66666667 2:-88.39552042 3:1.0 4:1.183441806 5:3.0 6:2.309090909
0.09531652472027691 1:-72.75 2:-88.35702614 3:1.0 4:0.288249559 5:0.0 6:0.266666667
0.11816463671887405 1:-70.66666667 2:-88.36388889 3:1.0 4:0.153451796 5:2.0 6:0.279166667
0.20200689951617673 1:-72.66666667 2:-88.32598039 3:1.0 4:0.127161955 5:8.0 6:0.084558824
0.051742155906887986 1:-72.66666667 2:-88.64984403 3:1.0 4:0.662710016 5:0.0 6:1.221590909
0.04849743216095346 1:-72.25 2:-88.32560903 3:1.0 4:1.481453884 5:8.0 6:2.130718954
0.15349577960285724 1:-67.75 2:-88.25053163 3:1.0 4:1.487205434 5:10.0 6:1.35645933
0.19631490216853856 1:-62.66666667 2:-86.77789244 3:1.0 4:1.106975465 5:12.0 6:0.163398693
0.22988903191834356 1:-58.33333333 2:-86.1744066 3:1.0 4:1.823183338 5:3.0 6:3.640866873
0.11460348398894597 1:-58.0 2:-86.05978992 3:1.0 4:1.402658697 5:6.0 6:0.130252101
0.09378098812498588 1:-55.0 2:-84.69786181 3:1.0 4:3.064368418 5:11.0 6:3.800653595
0.09291757632649991 1:-53.66666667 2:-81.53174603 3:1.0 4:4.016437629 5:13.0 6:7.873015873
17.983123560289254 1:-48.33333333 2:-78.83006536 3:1.0 4:1.546787642 5:2.0 6:2.787581699
0.11975508613643313 1:-66.25 2:-86.37799292 3:1.0 4:2.058095161 5:13.0 6:4.910675381
0.19501222604714882 1:-71.0 2:-88.17238562 3:1.0 4:1.344809708 5:14.0 6:2.208333333
0.07620879661729234 1:-62.75 2:-84.42767857 3:1.0 4:1.973507304 5:8.0 6:0.675
0.41425165643286177 1:-60.0 2:-81.96410256 3:1.0 4:5.121517434 5:12.0 6:10.82307692
0.07481831857709857 1:-64.66666667 2:-85.26739927 3:1.0 4:0.849524707 5:0.0 6:0.351648352
0.18183549347446198 1:-66.33333333 2:-84.4047619 3:1.0 4:2.274650804 5:10.0 6:4.547619048
0.11530169309332694 1:-66.33333333 2:-84.5952381 3:1.0 4:2.56955399 5:3.0 6:2.952380952
0.018870372231495063 1:-66.0 2:-85.61233211 3:1.0 4:2.984443521 5:8.0 6:5.217948718
0.13756962612390053 1:-63.0 2:-85.92714693 3:1.0 4:2.439259856 5:1.0 6:4.174603175
0.017632070100031615 1:-67.25 2:-85.17149436 3:1.0 4:1.853356903 5:13.0 6:4.418300654
0.16997685756091518 1:-68.0 2:-87.22033024 3:1.0 4:1.588504082 5:4.0 6:3.131578947
0.18030963677659587 1:-63.66666667 2:-86.19652071 3:1.0 4:3.309346534 5:23.0 6:5.100840336
0.4212383706056516 1:-55.0 2:-82.81634642 3:1.0 4:5.631367243 5:12.0 6:11.24269006
4.507712073493906 1:-52.66666667 2:-79.56660442 3:1.0 4:2.588580709 5:2.0 6:3.546218487
12.81866175011918 1:-53.0 2:-79.01104886 3:1.0 4:1.690186676 5:4.0 6:3.373015873
1.466236035037747 1:-53.75 2:-79.69002976 3:1.0 4:2.274881498 5:1.0 6:4.544642857
0.4939126292418413 1:-54.33333333 2:-76.81004902 3:1.0 4:0.430890091 5:4.0 6:0.746323529
0.17089254368333198 1:-71.33333333 2:-87.40095398 3:1.0 4:1.772988319 5:5.0 6:3.361952862
0.06705198424315727 1:-72.66666667 2:-87.41806053 3:1.0 4:1.753511256 5:5.0 6:0.653225806
0.03163780592467789 1:-73.66666667 2:-87.06549643 3:1.0 4:2.038212097 5:3.0 6:3.715099715
0.16217584990547587 1:-68.0 2:-85.91734828 3:1.0 4:0.206055361 5:16.0 6:0.133811231
0.0030990047643018994 1:-52.5 2:-81.75978836 3:1.0 4:3.193449526 5:11.0 6:3.62962963
0.21343346484412706 1:-54.25 2:-81.90140056 3:1.0 4:3.444646776 5:12.0 6:7.929411765
0.11336289837279279 1:-60.0 2:-85.52567694 3:1.0 4:2.827414868 5:21.0 6:5.380952381
0.02833854680880979 1:-77.33333333 2:-86.8140041 3:1.0 4:0.244958418 5:1.0 6:0.011904762
0.156333422330906 1:-70.0 2:-83.82460677 3:1.0 4:1.220851508 5:6.0 6:0.339366516
0.32778956116023855 1:-70.0 2:-85.75833105 3:1.0 4:2.845278475 5:8.0 6:5.779761905
0.40947199500704734 1:-68.33333333 2:-88.17089372 3:1.0 4:0.11342856 5:23.0 6:0.217391304
0.2591367516816299 1:-61.66666667 2:-88.2397343 3:1.0 4:0.027731793 5:4.0 6:0.041666667
0.13266217413489928 1:-64.33333333 2:-87.93823529 3:1.0 4:0.313383699 5:4.0 6:0.014705882
0.21325497934461518 1:-63.33333333 2:-88.56593407 3:1.0 4:1.556400515 5:1.0 6:2.730769231
0.2026685225645516 1:-64.0 2:-88.01838235 3:1.0 4:0.091469524 5:0.0 6:0.0625
0.09216544537273796 1:-63.0 2:-88.48148148 3:1.0 4:0.169725026 5:1.0 6:0.111111111
0.00968038905305434 1:-62.33333333 2:-88.54166667 3:1.0 4:0.181620789 5:3.0 6:0.041666667
0.3168070538602733 1:-55.25 2:-84.60723039 3:1.0 4:4.477731389 5:16.0 6:7.333333333
0.446947003737278 1:-47.0 2:-82.23223039 3:1.0 4:4.360496123 5:32.0 6:9.791666667
0.44111210360864894 1:-43.66666667 2:-79.14444444 3:1.0 4:1.721218345 5:10.0 6:3.4
0.44650681097851563 1:-47.66666667 2:-78.58304094 3:1.0 4:0.884854843 5:29.0 6:0.48245614
0.4514152461801013 1:-66.0 2:-82.84855072 3:1.0 4:0.152179089 5:4.0 6:0.154347826
0.014109989061310576 1:-69.33333333 2:-85.31074481 3:1.0 4:1.754846704 5:13.0 6:3.509157509
0.25015078848492583 1:-72.75 2:-87.62670409 3:1.0 4:1.795009558 5:1.0 6:3.853846154
0.15037884460851184 1:-62.66666667 2:-85.96315789 3:1.0 4:2.844915764 5:24.0 6:5.689473684
0.2864540900513465 1:-62.66666667 2:-83.17014964 3:1.0 4:4.822404312 5:23.0 6:9.151315789
0.3854491325222709 1:-66.0 2:-86.24558824 3:1.0 4:4.186381933 5:7.0 6:7.288235294
0.14101724675874389 1:-70.0 2:-88.85069444 3:1.0 4:0.232608829 5:7.0 6:0.508333333
0.2558112755419722 1:-67.75 2:-88.90694444 3:1.0 4:0.181408243 5:4.0 6:0.15
0.10684904363616958 1:-67.33333333 2:-88.40948204 3:1.0 4:0.475878349 5:1.0 6:0.376315789
0.022757031524668042 1:-67.25 2:-87.27663784 3:1.0 4:1.644995176 5:1.0 6:2.704453441
0.04189725887186599 1:-69.75 2:-85.69795396 3:1.0 4:0.87413318 5:0.0 6:0.278772379
0.11808682717522678 1:-75.0 2:-86.12234935 3:1.0 4:0.143707337 5:12.0 6:0.010526316
0.05906409233165588 1:-75.0 2:-85.95568268 3:1.0 4:0.255264192 5:0.0 6:0.256521739
0.008051094296420182 1:-71.66666667 2:-87.0368254 3:1.0 4:0.138947561 5:4.0 6:0.27047619
0.14072378718941436 1:-70.33333333 2:-86.91920746 3:1.0 4:0.037423065 5:0.0 6:0.031468531
0.06094521556377752 1:-65.75 2:-86.43046959 3:1.0 4:1.202234393 5:13.0 6:1.873563218
0.025369003879513536 1:-59.0 2:-85.27611995 3:1.0 4:0.451630195 5:7.0 6:0.118589744
0.09261528280212694 1:-55.0 2:-84.47270115 3:1.0 4:1.618805331 5:7.0 6:3.126436782
0.045256924879542436 1:-61.0 2:-85.90904344 3:1.0 4:1.702701595 5:17.0 6:2.970238095
0.00227822442991602 1:-68.5 2:-86.85806463 3:1.0 4:1.315723081 5:15.0 6:2.591093117
0.07004696058842821 1:-74.25 2:-87.33908103 3:1.0 4:0.706559161 5:9.0 6:0.631818182
0.19911969575183575 1:-68.66666667 2:-86.12993898 3:1.0 4:2.369058317 5:16.0 6:4.681922197
0.050177697416664585 1:-61.66666667 2:-83.99035088 3:1.0 4:2.380757831 5:12.0 6:4.707894737
0.08602227539363932 1:-65.33333333 2:-85.00778388 3:1.0 4:0.510376297 5:15.0 6:0.696428571
7.981058801570885 1:-51.66666667 2:-78.79487179 3:1.0 4:0.930525503 5:1.0 6:1.769230769
0.8662298565436709 1:-51.0 2:-77.47504579 3:1.0 4:1.249317277 5:11.0 6:2.952380952
1.4249683675684919 1:-55.0 2:-78.64766484 3:1.0 4:3.284374363 5:21.0 6:5.607142857
1.736457077959664 1:-59.33333333 2:-79.16666667 3:1.0 4:3.87451994 5:16.0 6:2.714285714
0.41073868250427215 1:-60.0 2:-78.80952381 3:1.0 4:4.369615248 5:25.0 6:8.714285714
0.03328030354266207 1:-70.5 2:-85.32591533 3:1.0 4:1.52398117 5:4.0 6:0.282608696
0.1247248625550238 1:-75.66666667 2:-86.46 3:1.0 4:1.704934016 5:3.0 6:0.32
0.1695517886379414 1:-61.5 2:-85.22857488 3:1.0 4:3.262819116 5:31.0 6:6.546666667
0.05584361725726535 1:-54.5 2:-84.33044988 3:1.0 4:2.993215576 5:12.0 6:4.269021739
0.12893994766328834 1:-61.66666667 2:-84.27826618 3:1.0 4:0.165934605 5:5.0 6:0.252380952
0.09999982482157715 1:-54.0 2:-85.39316239 3:1.0 4:0.976156686 5:2.0 6:1.948717949
0.29326446819801455 1:-54.25 2:-84.63432401 3:1.0 4:2.509043738 5:0.0 6:4.552447552
2.935200380514591 1:-58.0 2:-81.90909091 3:1.0 4:1.502064695 5:14.0 6:2.727272727
0.21149004173175034 1:-54.75 2:-83.19967532 3:1.0 4:0.96105907 5:19.0 6:0.649350649
3.0143648206025584 1:-48.66666667 2:-81.82051282 3:1.0 4:2.413841595 5:5.0 6:4.824175824
0.025535874695823354 1:-63.33333333 2:-82.03030303 3:1.0 4:0.688352527 5:5.0 6:1.272727273
0.11211549760251584 1:-64.66666667 2:-82.15151515 3:1.0 4:0.584463682 5:1.0 6:0.181818182
0.12583722403922326 1:-64.33333333 2:-82.8951049 3:1.0 4:0.42726071 5:0.0 6:0.384615385
0.0042464924246972124 1:-64.75 2:-83.86363636 3:1.0 4:1.520455125 5:0.0 6:1.776223776
0.025489573818369433 1:-61.66666667 2:-82.61538462 3:1.0 4:1.424635321 5:6.0 6:2.692307692
0.29519063961720254 1:-55.66666667 2:-81.79487179 3:1.0 4:1.18254898 5:17.0 6:1.923076923
5.768037368226289 1:-51.0 2:-80.16185897 3:1.0 4:1.280227068 5:6.0 6:1.0
4.545227908844433 1:-49.66666667 2:-80.03737374 3:1.0 4:1.447445847 5:4.0 6:2.766666667
0.0884567563160811 1:-55.5 2:-82.80084499 3:1.0 4:0.406552907 5:0.0 6:0.301282051
1.929341830400084 1:-56.0 2:-82.59767316 3:1.0 4:0.684807307 5:13.0 6:1.096590909
0.26796007350354173 1:-49.66666667 2:-81.84285714 3:1.0 4:0.236038738 5:13.0 6:0.214285714
0.6917528766364682 1:-48.25 2:-80.31369048 3:1.0 4:2.854089887 5:10.0 6:5.871428571
0.0696486380214828 1:-50.33333333 2:-79.43760684 3:1.0 4:2.811722121 5:5.0 6:5.066666667
0.09537409327535641 1:-50.33333333 2:-80.91086691 3:1.0 4:1.238140393 5:7.0 6:1.21978022
0.6136122858272726 1:-50.5 2:-81.43452381 3:1.0 4:2.014157657 5:1.0 6:4.0
0.33351649886284673 1:-60.66666667 2:-82.93347763 3:1.0 4:1.609719775 5:22.0 6:0.423809524
0.4021732409718091 1:-64.75 2:-81.39498002 3:1.0 4:5.463406638 5:6.0 6:7.090909091
0.37064870870050576 1:-62.25 2:-80.13787775 3:1.0 4:6.098308394 5:22.0 6:7.580357143
0.4509600939987397 1:-49.66666667 2:-74.96527778 3:1.0 4:1.037561355 5:9.0 6:0.833333333
0.4068861325261065 1:-46.0 2:-75.38194444 3:1.0 4:0.62511573 5:7.0 6:0.8125
0.26976551657647335 1:-63.66666667 2:-86.40996169 3:1.0 4:1.329877275 5:23.0 6:0.666666667
0.2606784624928216 1:-54.0 2:-83.15325049 3:1.0 4:4.253574722 5:21.0 6:6.967980296
2.596805930755622 1:-50.25 2:-81.40988178 3:1.0 4:2.863338582 5:3.0 6:4.41025641
0.1781529011049115 1:-50.5 2:-82.08068182 3:1.0 4:2.89738844 5:13.0 6:6.977272727
0.15219481428124532 1:-51.66666667 2:-79.66868687 3:1.0 4:1.978881462 5:13.0 6:3.133333333
11.297738157685824 1:-50.75 2:-80.39318182 3:1.0 4:2.155044804 5:1.0 6:3.941558442
2.9465614006169267 1:-46.33333333 2:-79.85606061 3:1.0 4:0.210900165 5:1.0 6:0.416666667
14.72589911107474 1:-46.75 2:-79.72916667 3:1.0 4:1.117561197 5:1.0 6:1.636363636
0.9436203304015609 1:-49.33333333 2:-79.59090909 3:1.0 4:0.613542829 5:2.0 6:0.856060606
1.112316746909593 1:-51.25 2:-80.24047619 3:1.0 4:1.177935535 5:9.0 6:1.845238095
0.6544331180890129 1:-52.66666667 2:-79.275 3:1.0 4:0.319178633 5:7.0 6:0.625
0.8462683141186473 1:-53.0 2:-81.43958333 3:1.0 4:2.422267217 5:4.0 6:5.0
0.27927579964901805 1:-52.33333333 2:-80.15757576 3:1.0 4:3.536367531 5:4.0 6:6.563636364
0.08602712287816164 1:-51.0 2:-79.86320346 3:1.0 4:1.993895784 5:8.0 6:3.628571429
17.96698747897216 1:-50.33333333 2:-81.32777778 3:1.0 4:0.842010381 5:5.0 6:1.116666667
0.23659701682297707 1:-51.25 2:-79.33863636 3:1.0 4:1.746738401 5:12.0 6:1.581818182
0.3809262833268178 1:-55.25 2:-80.82447552 3:1.0 4:2.46013986 5:20.0 6:4.27972028
0.02780599057588562 1:-59.66666667 2:-81.82051282 3:1.0 4:2.514803677 5:3.0 6:2.090909091
3.8807816410387628 1:-56.66666667 2:-79.35 3:1.0 4:2.256656819 5:12.0 6:3.75
0.20376994182766112 1:-53.25 2:-80.46924603 3:1.0 4:3.844065152 5:17.0 6:7.107142857
1.721227564800521 1:-49.5 2:-81.84424603 3:1.0 4:2.949932447 5:1.0 6:4.694444444
2.648191874412024 1:-52.0 2:-80.68888889 3:1.0 4:0.781262037 5:5.0 6:0.266666667
0.05898733101170543 1:-61.0 2:-81.6 3:1.0 4:1.766352173 5:8.0 6:1.8
0.05134326957900159 1:-60.66666667 2:-81.28333333 3:1.0 4:1.64797856 5:3.0 6:1.15
0.17515793584891676 1:-58.33333333 2:-82.33333333 3:1.0 4:2.753785274 5:7.0 6:5.5
0.11936206147312144 1:-54.5 2:-81.90178571 3:1.0 4:2.373567416 5:17.0 6:5.5
34.03886408230699 1:-49.33333333 2:-79.9967366 3:1.0 4:1.420146178 5:6.0 6:2.482517483
0.0012167821960060504 1:-51.5 2:-81.17171717 3:1.0 4:0.878149077 5:6.0 6:0.131313131
0.5073407508084878 1:-49.66666667 2:-80.56084656 3:1.0 4:1.054968608 5:9.0 6:1.873015873
0.08461906130957256 1:-70.75 2:-84.50178571 3:1.0 4:1.680423244 5:10.0 6:3.142857143
0.38469265765644867 1:-77.66666667 2:-84.88988095 3:1.0 4:2.735472022 5:8.0 6:5.142857143
0.07081992276292902 1:-72.0 2:-85.62377451 3:1.0 4:2.150154941 5:8.0 6:1.246323529
0.14671045407499986 1:-72.0 2:-86.88324421 3:1.0 4:1.593179823 5:17.0 6:0.409090909
0.09425635181599795 1:-68.0 2:-86.33578016 3:1.0 4:1.440460339 5:1.0 6:3.330039526
0.1059094996407851 1:-69.25 2:-85.2475767 3:1.0 4:1.780293432 5:5.0 6:3.571428571
0.08653736845672186 1:-72.33333333 2:-83.38142458 3:1.0 4:0.272477979 5:4.0 6:0.457556936
0.0597786197376591 1:-73.75 2:-84.38425787 3:1.0 4:0.724760592 5:3.0 6:0.184347826
0.3497716751168052 1:-79.33333333 2:-84.74257626 3:1.0 4:0.185238368 5:9.0 6:0.223776224
0.3644351964965127 1:-82.0 2:-85.14005902 3:1.0 4:0.407346291 5:0.0 6:0.082621083
0.15259355921557002 1:-80.75 2:-84.9755291 3:1.0 4:0.660992393 5:3.0 6:1.185185185
0.2315814064822488 1:-80.0 2:-84.41975309 3:1.0 4:0.385493704 5:4.0 6:0.555555556
0.1685729517145842 1:-74.0 2:-84.32098765 3:1.0 4:0.223248658 5:13.0 6:0.444444444
0.3127489361015222 1:-65.0 2:-84.50033138 3:1.0 4:0.655496968 5:25.0 6:0.506822612
2.8899378601530996 1:-46.33333333 2:-80.0034188 3:1.0 4:0.892459954 5:1.0 6:1.779487179
29.37634167069965 1:-50.25 2:-79.37574925 3:1.0 4:1.548120037 5:5.0 6:2.951048951
0.38489097436572506 1:-56.75 2:-85.98094093 3:1.0 4:3.790533712 5:11.0 6:7.263736264
0.32419946028469304 1:-60.75 2:-87.78863324 3:1.0 4:0.30196689 5:10.0 6:0.318681319
0.1486220576276723 1:-69.66666667 2:-87.34583333 3:1.0 4:1.836110586 5:9.0 6:3.4375
0.02985669638591537 1:-68.75 2:-88.08561934 3:1.0 4:1.033799504 5:11.0 6:1.514423077
0.014299448710949953 1:-68.0 2:-87.14102564 3:1.0 4:0.950340781 5:6.0 6:1.83974359
0.1435890076119505 1:-65.25 2:-86.99206349 3:1.0 4:2.149870944 5:10.0 6:4.5
0.22387923610188354 1:-66.0 2:-84.33261494 3:1.0 4:1.660814098 5:22.0 6:1.083333333
0.24787299154051132 1:-73.66666667 2:-84.40075155 3:1.0 4:2.380020528 5:4.0 6:4.624668435
0.06646130516736964 1:-68.0 2:-84.32777778 3:1.0 4:2.044663334 5:8.0 6:3.15
0.0284065411712035 1:-71.66666667 2:-84.75755361 3:1.0 4:1.270705941 5:11.0 6:2.36622807
0.14560186431020058 1:-68.33333333 2:-84.17295765 3:1.0 4:0.309177936 5:8.0 6:0.232323232
0.1870208909555068 1:-63.75 2:-83.4904746 3:1.0 4:2.41186576 5:15.0 6:4.572192513
0.3355424798570194 1:-60.66666667 2:-80.29166667 3:1.0 4:4.393001358 5:15.0 6:8.757352941
1.8652378276550956 1:-50.66666667 2:-78.625 3:1.0 4:2.171434456 5:8.0 6:0.007352941
1.7602177764939735 1:-55.66666667 2:-79.14338235 3:1.0 4:2.734347658 5:8.0 6:5.319852941
0.3267260578992205 1:-64.75 2:-82.43526786 3:1.0 4:2.24462433 5:31.0 6:5.125
0.39959127179687165 1:-73.5 2:-84.12828256 3:1.0 4:2.223663015 5:12.0 6:5.209558824
0.13474144036082486 1:-77.66666667 2:-87.28586171 3:1.0 4:0.819997158 5:0.0 6:0.352941176
0.18260282872655711 1:-76.0 2:-86.60103964 3:1.0 4:1.841667216 5:4.0 6:3.617933723
0.12199785568577984 1:-76.66666667 2:-83.96210826 3:1.0 4:1.604491453 5:9.0 6:3.130769231
0.2997528381483137 1:-76.0 2:-83.47290448 3:1.0 4:0.834653788 5:8.0 6:0.707602339
0.09565557587000292 1:-77.0 2:-83.87438596 3:1.0 4:1.131263767 5:2.0 6:2.16
0.013171612602618277 1:-75.25 2:-84.30238038 3:1.0 4:0.54423499 5:9.0 6:0.373205742
0.04834998816151949 1:-74.0 2:-84.88471673 3:1.0 4:0.90967573 5:6.0 6:0.42687747
0.09075472318685576 1:-71.66666667 2:-84.8459596 3:1.0 4:0.498870012 5:8.0 6:0.909090909
0.015250408772111175 1:-67.5 2:-85.46621494 3:1.0 4:1.65875731 5:1.0 6:0.463203463
0.18447867075539404 1:-65.66666667 2:-84.44527987 3:1.0 4:2.303606287 5:6.0 6:4.473684211
0.3283620460549999 1:-63.0 2:-81.49791145 3:1.0 4:2.96284313 5:4.0 6:5.651629073
1.9114078174491205 1:-53.0 2:-78.06663718 3:1.0 4:0.456473418 5:15.0 6:0.586466165
0.24954983156028687 1:-59.66666667 2:-81.25877193 3:1.0 4:3.736849827 5:22.0 6:7.473684211
0.22409139936706698 1:-60.5 2:-82.08157895 3:1.0 4:3.466613617 5:15.0 6:7.023684211
0.24692800935797435 1:-71.66666667 2:-86.39166667 3:1.0 4:1.988456269 5:14.0 6:3.95
0.066983994386969 1:-75.33333333 2:-85.25835796 3:1.0 4:0.111196848 5:12.0 6:0.077142857
0.07310496380970091 1:-71.66666667 2:-85.19280241 3:1.0 4:0.144917441 5:3.0 6:0.054597701
0.16372398336882893 1:-66.66666667 2:-85.23656899 3:1.0 4:0.139796308 5:11.0 6:0.087912088
0.2369343274854741 1:-60.66666667 2:-84.85826211 3:1.0 4:0.558613924 5:19.0 6:0.861111111
0.06479500633413222 1:-59.66666667 2:-81.27136752 3:1.0 4:0.4596799 5:0.0 6:0.519230769
0.14798888598805152 1:-61.66666667 2:-81.93650794 3:1.0 4:1.292384228 5:5.0 6:0.047619048
0.16463622988807947 1:-63.0 2:-82.04456654 3:1.0 4:1.212913845 5:8.0 6:1.89010989
0.15533940284541056 1:-60.33333333 2:-81.20726496 3:1.0 4:0.31287918 5:1.0 6:0.25
0.06727030936149404 1:-61.5 2:-82.66985294 3:1.0 4:2.272871477 5:1.0 6:3.612745098
0.028166969193865722 1:-63.33333333 2:-84.60841503 3:1.0 4:0.10944014 5:3.0 6:0.170833333
0.04418692679804522 1:-67.33333333 2:-85.68547009 3:1.0 4:0.208455914 5:2.0 6:0.066666667
0.018552128844329475 1:-66.33333333 2:-83.6969697 3:1.0 4:0.052486388 5:1.0 6:0.0
0.05222208436173788 1:-69.25 2:-85.8293956 3:1.0 4:0.41686402 5:3.0 6:0.214285714
0.18248120682173674 1:-62.33333333 2:-83.23888889 3:1.0 4:0.576467531 5:10.0 6:0.2
0.12309080000241053 1:-61.0 2:-84.29206349 3:1.0 4:0.523058625 5:0.0 6:0.714285714
0.23066642128380885 1:-59.25 2:-84.125 3:1.0 4:0.161374306 5:15.0 6:0.125
0.2283284618949458 1:-58.33333333 2:-84.10416667 3:1.0 4:0.190940654 5:20.0 6:0.125
0.4431873368626137 1:-72.0 2:-84.14032634 3:1.0 4:1.397919647 5:25.0 6:1.015384615
0.1936677474740209 1:-62.25 2:-84.17601868 3:1.0 4:2.884270795 5:32.0 6:5.5
0.21722871573886413 1:-59.66666667 2:-80.91111111 3:1.0 4:0.969726957 5:7.0 6:1.933333333
0.06102301948410111 1:-66.75 2:-83.86607143 3:1.0 4:1.585297594 5:11.0 6:3.523809524
0.0028223966991709317 1:-65.0 2:-83.76434676 3:1.0 4:1.595243703 5:10.0 6:1.587912088
0.17844998992146588 1:-61.33333333 2:-83.76434676 3:1.0 4:1.595243703 5:0.0 6:3.19047619
0.1515327759624097 1:-65.33333333 2:-84.14102564 3:1.0 4:0.55514449 5:12.0 6:0.0
0.30078376240195037 1:-63.0 2:-83.0018315 3:1.0 4:1.424490508 5:15.0 6:2.846153846
0.021707252506214372 1:-58.33333333 2:-81.75815851 3:1.0 4:1.924430812 5:0.0 6:2.134615385
0.13203592148466664 1:-63.0 2:-82.31439394 3:1.0 4:1.262063006 5:3.0 6:2.803030303
0.11099306584903798 1:-62.66666667 2:-81.72474747 3:1.0 4:0.35985513 5:3.0 6:0.356060606
0.16001844465896942 1:-69.66666667 2:-85.06984127 3:1.0 4:0.178258986 5:11.0 6:0.276190476
0.059969771773916505 1:-64.33333333 2:-82.94172494 3:1.0 4:0.917799422 5:0.0 6:0.097902098
0.042166128803819036 1:-64.66666667 2:-84.05238095 3:1.0 4:2.652697254 5:2.0 6:4.8
0.14016963430195112 1:-64.66666667 2:-83.76007326 3:1.0 4:2.400126374 5:2.0 6:0.434065934
0.02549010713943098 1:-64.0 2:-83.22222222 3:1.0 4:0.292657049 5:7.0 6:0.25
0.06430490226614383 1:-57.0 2:-81.10912005 3:1.0 4:0.841820735 5:0.0 6:1.762237762
0.19398303238657785 1:-63.0 2:-83.32784993 3:1.0 4:2.464894213 5:23.0 6:3.654545455
0.03644885960966049 1:-64.33333333 2:-83.69148629 3:1.0 4:1.853930224 5:0.0 6:3.601731602
0.39087504974852955 1:-64.0 2:-82.27878788 3:1.0 4:1.693969209 5:20.0 6:3.2
0.12205540356523278 1:-61.0 2:-81.77462121 3:1.0 4:1.162829433 5:13.0 6:2.5
0.34644089425192887 1:-66.66666667 2:-82.75 3:1.0 4:0.845740964 5:7.0 6:1.666666667
0.035972045160503285 1:-63.66666667 2:-82.25 3:1.0 4:0.583333333 5:6.0 6:0.916666667
0.08700255376943308 1:-60.0 2:-81.64335664 3:1.0 4:2.166410542 5:10.0 6:3.363636364
0.47255868095629683 1:-55.33333333 2:-79.48295455 3:1.0 4:0.413603583 5:10.0 6:0.130681818
3.652782063109508 1:-55.0 2:-77.47083333 3:1.0 4:1.619901189 5:16.0 6:2.479166667
17.66931557902461 1:-48.66666667 2:-77.1 3:1.0 4:0.993870101 5:2.0 6:1.933333333
0.1331099873507813 1:-68.33333333 2:-83.47727273 3:1.0 4:0.911644142 5:5.0 6:1.318181818
0.22512745924934802 1:-70.66666667 2:-83.23473193 3:1.0 4:1.958552173 5:1.0 6:3.823076923
0.5793491642487341 1:-70.66666667 2:-81.58288008 3:1.0 4:1.941505041 5:4.0 6:3.782828283
0.8518775806549729 1:-69.0 2:-80.74045584 3:1.0 4:0.692107354 5:2.0 6:0.123076923
0.44736112933329764 1:-69.0 2:-80.94208754 3:1.0 4:0.896942586 5:1.0 6:1.737373737
0.19847896139226257 1:-71.75 2:-82.40400641 3:1.0 4:0.930605042 5:3.0 6:0.724358974
0.1789628105237374 1:-67.66666667 2:-83.88232601 3:1.0 4:1.622829157 5:13.0 6:3.089285714
0.14325977308186652 1:-56.66666667 2:-84.4655903 3:1.0 4:0.204960314 5:6.0 6:0.249427918
0.12570967866458727 1:-56.0 2:-84.86666667 3:1.0 4:0.290593263 5:3.0 6:0.066666667
0.02080952389871173 1:-61.25 2:-85.65784314 3:1.0 4:0.095005345 5:3.0 6:0.133333333
0.1305227944318877 1:-59.0 2:-85.42645503 3:1.0 4:1.823011093 5:9.0 6:3.301587302
0.16362849813318098 1:-70.5 2:-85.64044312 3:1.0 4:1.301014603 5:18.0 6:0.675
0.16141134834220833 1:-76.0 2:-84.10835323 3:1.0 4:0.567763576 5:4.0 6:1.133433283
0.25072183539428367 1:-76.33333333 2:-83.70662909 3:1.0 4:0.384045483 5:0.0 6:0.698148148
0.264275122324833 1:-79.0 2:-84.78025641 3:1.0 4:1.186857602 5:0.0 6:2.280769231
0.09414757975104517 1:-78.33333333 2:-85.33858974 3:1.0 4:0.340087948 5:5.0 6:0.035
0.018827448786402717 1:-78.33333333 2:-84.9957265 3:1.0 4:0.307781326 5:2.0 6:0.41025641
0.05549592956124409 1:-78.33333333 2:-85.34428419 3:1.0 4:0.619063032 5:6.0 6:1.237980769
0.05782105803386371 1:-64.66666667 2:-86.95491143 3:1.0 4:1.9172679 5:4.0 6:2.917874396
0.019389655624902025 1:-67.66666667 2:-86.51868802 3:1.0 4:0.176087415 5:4.0 6:0.315789474
0.1204937311331458 1:-73.0 2:-87.4047619 3:1.0 4:1.565946797 5:8.0 6:2.789473684
0.1603318486047633 1:-73.0 2:-87.6163284 3:1.0 4:1.124937817 5:11.0 6:1.718266254
0.16813675473085338 1:-66.0 2:-87.94633643 3:1.0 4:1.530527956 5:10.0 6:3.055727554
0.27837809636278943 1:-65.25 2:-86.64608058 3:1.0 4:3.098630614 5:16.0 6:7.232198142
4.818210633152078 1:-51.66666667 2:-80.29102167 3:1.0 4:1.750825319 5:2.0 6:3.241486068
2.0468044949267417 1:-51.66666667 2:-78.1 3:1.0 4:3.242598409 5:7.0 6:6.233333333
13.696337859045576 1:-51.33333333 2:-76.76783626 3:1.0 4:1.147972282 5:1.0 6:0.670175439
1.3918189625425876 1:-49.66666667 2:-77.66985646 3:1.0 4:2.137151116 5:2.0 6:4.272727273
0.005495935064384441 1:-69.0 2:-86.14090909 3:1.0 4:0.766391135 5:5.0 6:0.218181818
0.11824086308790267 1:-66.66666667 2:-86.74561404 3:1.0 4:0.150192244 5:0.0 6:0.136842105
0.0014131347867463921 1:-69.0 2:-87.52356902 3:1.0 4:1.241893758 5:6.0 6:0.161616162
0.07112278420509915 1:-65.25 2:-86.5594697 3:1.0 4:1.796676048 5:15.0 6:4.01010101
0.0748083318070199 1:-65.5 2:-86.04305556 3:1.0 4:0.998253361 5:4.0 6:0.0
0.015334236355704692 1:-66.0 2:-85.5 3:1.0 4:1.210805262 5:8.0 6:0.277777778
0.2750356497649245 1:-61.33333333 2:-83.82962963 3:1.0 4:3.552521854 5:30.0 6:6.955555556
0.1931919059093978 1:-58.75 2:-82.63419118 3:1.0 4:0.53476747 5:9.0 6:0.0
0.24973573826267184 1:-58.75 2:-81.69791667 3:1.0 4:2.233710323 5:3.0 6:4.325
0.23351208589723632 1:-58.0 2:-81.99583333 3:1.0 4:1.992185253 5:0.0 6:3.8875
0.08147883305827425 1:-56.0 2:-84.14473039 3:1.0 4:1.203567666 5:0.0 6:0.679411765
0.09472131579343888 1:-59.66666667 2:-84.98869826 3:1.0 4:0.737764588 5:11.0 6:1.423611111
0.019487910167846904 1:-62.75 2:-85.33272059 3:1.0 4:1.212341843 5:5.0 6:0.294117647
0.1609175123316137 1:-57.0 2:-84.55882353 3:1.0 4:0.12820291 5:0.0 6:0.029411765
0.004023956626521821 1:-55.66666667 2:-84.7254902 3:1.0 4:0.277989154 5:2.0 6:0.117647059
0.09275758987722514 1:-60.25 2:-84.86869748 3:1.0 4:1.071318031 5:3.0 6:0.117647059
0.019186399072386083 1:-59.33333333 2:-85.07440476 3:1.0 4:0.531256252 5:0.0 6:0.901785714
0.04809466273493152 1:-58.75 2:-84.63777473 3:1.0 4:0.174660397 5:0.0 6:0.35
0.048098671722347656 1:-61.25 2:-84.43360806 3:1.0 4:0.36897417 5:8.0 6:0.852380952
0.0857968842017889 1:-61.75 2:-83.32577341 3:1.0 4:3.110798157 5:3.0 6:3.658862876
0.18719235587733368 1:-60.0 2:-82.91017512 3:1.0 4:3.838722318 5:13.0 6:6.215277778
0.8682192166104107 1:-52.66666667 2:-80.74729699 3:1.0 4:2.734484549 5:3.0 6:1.567287785
7.227100311729732 1:-51.33333333 2:-80.55889119 3:1.0 4:2.507200509 5:0.0 6:4.756038647
0.2502317403233056 1:-66.33333333 2:-86.46495466 3:1.0 4:2.551814501 5:2.0 6:4.979405034
0.1420147738564876 1:-64.5 2:-86.74002034 3:1.0 4:2.154951512 5:6.0 6:3.913043478
0.13027866635843066 1:-64.33333333 2:-87.77213785 3:1.0 4:0.182301475 5:7.0 6:0.276887872
0.12342372083556016 1:-59.33333333 2:-84.90412529 3:1.0 4:3.810202703 5:23.0 6:7.43697479
13.945987809093674 1:-50.33333333 2:-80.5 3:1.0 4:1.732477789 5:6.0 6:2.961538462
15.645153580678684 1:-49.33333333 2:-79.37313797 3:1.0 4:1.690125344 5:2.0 6:3.328205128
34.60283135931823 1:-49.25 2:-78.4529304 3:1.0 4:2.230671458 5:1.0 6:2.483516484
1.6346772479837988 1:-47.66666667 2:-77.71794872 3:1.0 4:2.500098617 5:0.0 6:5.0
0.2652299959296651 1:-51.5 2:-79.41321179 3:1.0 4:3.380024803 5:5.0 6:5.269230769
0.7143552693605411 1:-54.33333333 2:-79.52777778 3:1.0 4:2.208464357 5:6.0 6:3.5
0.5668586976358275 1:-51.75 2:-77.40467172 3:1.0 4:2.74212223 5:13.0 6:6.638888889
0.2668324997907836 1:-47.25 2:-74.85606061 3:1.0 4:2.915413245 5:2.0 6:6.111111111
0.27179907668765957 1:-47.0 2:-74.93162393 3:1.0 4:4.307039362 5:4.0 6:5.017094017
0.3744937497454553 1:-48.0 2:-76.9025234 3:1.0 4:5.227176758 5:8.0 6:9.468253968
0.5387147603357988 1:-56.75 2:-81.62654533 3:1.0 4:3.232068443 5:22.0 6:6.975961538
0.10270905923495913 1:-62.25 2:-83.44449405 3:1.0 4:3.629098973 5:15.0 6:6.376190476
0.15290485031039816 1:-74.25 2:-84.41339869 3:1.0 4:1.006145059 5:13.0 6:0.333333333
0.17116752454788783 1:-67.66666667 2:-84.18518519 3:1.0 4:1.283000598 5:0.0 6:2.222222222
0.03674936884291329 1:-61.0 2:-83.25948418 3:1.0 4:2.675889699 5:12.0 6:5.218623482
5.94864301537693 1:-47.0 2:-79.44545455 3:1.0 4:0.700825959 5:0.0 6:0.845454545
11.737582145807458 1:-50.75 2:-81.62331933 3:1.0 4:1.829454852 5:5.0 6:2.271428571
2.0527676183589048 1:-51.25 2:-82.36081933 3:1.0 4:0.976388948 5:4.0 6:0.392857143
4.885351396230369 1:-52.0 2:-77.98352273 3:1.0 4:2.402603741 5:3.0 6:0.636363636
1.0014990377022328 1:-52.75 2:-76.88756313 3:1.0 4:1.971466284 5:8.0 6:0.763888889
0.29218497594128306 1:-49.33333333 2:-79.3032893 3:1.0 4:3.260647108 5:4.0 6:2.748251748
0.6616938384556749 1:-56.0 2:-80.85769231 3:1.0 4:1.23474518 5:4.0 6:0.730769231
1.3365474225341385 1:-52.0 2:-80.31481481 3:1.0 4:1.472309571 5:11.0 6:0.722222222
0.7596458213056947 1:-52.0 2:-80.76767677 3:1.0 4:0.822844923 5:20.0 6:0.96969697
0.3866109366371991 1:-50.75 2:-79.70909091 3:1.0 4:1.557068659 5:17.0 6:1.363636364
8.782264177584022 1:-46.33333333 2:-78.76666667 3:1.0 4:1.486755115 5:1.0 6:1.427272727
1.2484867826774564 1:-49.5 2:-81.57007576 3:1.0 4:1.254977464 5:5.0 6:2.992424242
1.6684462232917743 1:-55.0 2:-81.57575758 3:1.0 4:0.706132133 5:15.0 6:1.363636364
0.33181110313839557 1:-50.25 2:-83.33948864 3:1.0 4:0.810650922 5:16.0 6:1.612121212
0.22960682018479614 1:-49.75 2:-80.40262238 3:1.0 4:3.379847842 5:15.0 6:2.853146853
2.7005724982424666 1:-55.33333333 2:-80.84472934 3:1.0 4:1.030015009 5:11.0 6:1.145299145
1.1074945077034064 1:-54.33333333 2:-78.53333333 3:1.0 4:1.386842938 5:10.0 6:2.7
29.553845698141934 1:-50.0 2:-79.53269231 3:1.0 4:2.18424857 5:2.0 6:3.330769231
0.47475510093404266 1:-51.25 2:-82.64568765 3:1.0 4:1.16960118 5:6.0 6:0.776223776
0.141311304909228 1:-56.25 2:-83.98793363 3:1.0 4:2.076290416 5:20.0 6:4.156862745
0.10107828675506388 1:-62.0 2:-85.17496229 3:1.0 4:2.555845546 5:7.0 6:4.239819005
0.1963922596318163 1:-57.25 2:-84.57843137 3:1.0 4:2.490041681 5:17.0 6:5.156862745
0.20099619579630396 1:-51.75 2:-83.0355925 3:1.0 4:2.546536732 5:15.0 6:5.818414322
15.840087898840556 1:-48.5 2:-78.66646465 3:1.0 4:1.929951805 5:3.0 6:4.08
0.6184629313914711 1:-56.0 2:-81.23150183 3:1.0 4:3.506400609 5:16.0 6:6.371428571
2.619709736190732 1:-50.0 2:-80.72407407 3:1.0 4:3.078401127 5:3.0 6:5.688888889
7.4037468071364385 1:-50.5 2:-81.84134279 3:1.0 4:2.019243862 5:0.0 6:2.773109244
0.029205087516055255 1:-57.66666667 2:-84.35456349 3:1.0 4:0.328782893 5:9.0 6:0.545833333
0.12315282799688775 1:-47.0 2:-84.91269841 3:1.0 4:0.728561054 5:0.0 6:1.261904762
0.03614462111376992 1:-50.5 2:-82.29672619 3:1.0 4:0.776619668 5:5.0 6:0.575
0.20193088000481044 1:-57.66666667 2:-86.86367521 3:1.0 4:0.399499056 5:2.0 6:0.774358974
0.14800589425151783 1:-59.0 2:-86.46481481 3:1.0 4:0.324908977 5:6.0 6:0.638888889
0.11834071486439152 1:-63.5 2:-86.49934641 3:1.0 4:0.293189531 5:8.0 6:0.003921569
0.03667241275928257 1:-64.66666667 2:-86.65 3:1.0 4:0.469337595 5:9.0 6:0.633333333
0.033126724132808955 1:-64.25 2:-86.39167542 3:1.0 4:1.312574319 5:9.0 6:2.966911765
0.044685986861101264 1:-62.0 2:-86.31195406 3:1.0 4:1.227355537 5:1.0 6:0.092879257
0.15452240346740162 1:-61.75 2:-85.41637039 3:1.0 4:1.779381961 5:5.0 6:3.846153846
0.07633100452337933 1:-70.33333333 2:-88.07175926 3:1.0 4:1.187973698 5:5.0 6:0.222222222
0.2367001455770183 1:-66.66666667 2:-87.35747354 3:1.0 4:2.041345675 5:17.0 6:4.080357143
0.07989848024121886 1:-66.25 2:-86.32216387 3:1.0 4:0.322466846 5:18.0 6:0.400560224
0.06088109315489954 1:-62.33333333 2:-83.47652464 3:1.0 4:2.913057771 5:19.0 6:5.685714286
3.974852747837403 1:-52.66666667 2:-81.0294347 3:1.0 4:2.876581993 5:7.0 6:5.599415205
0.3752034167728123 1:-41.5 2:-78.84313501 3:1.0 4:1.263293052 5:23.0 6:2.842105263
0.4331396705880104 1:-40.0 2:-77.74444444 3:1.0 4:1.436172898 5:2.0 6:2.566666667
0.3755019034979614 1:-42.33333333 2:-77.16666667 3:1.0 4:0.440958552 5:24.0 6:0.666666667
-16.47977184475866 1:-52.0 2:-79.60707324 3:1.0 4:1.601243858 5:4.0 6:2.432748538
-0.46482175241628926 1:-64.0 2:-79.1009361 3:1.0 4:0.974250588 5:17.0 6:1.760683761
-0.2413938945746363 1:-69.0 2:-77.86019536 3:1.0 4:1.18059343 5:8.0 6:2.119047619
-0.4266877373779707 1:-71.33333333 2:-78.47262952 3:1.0 4:1.718466524 5:4.0 6:3.14516129
-0.2049167808206339 1:-73.33333333 2:-78.67501047 3:1.0 4:1.370523046 5:9.0 6:2.165584416
-0.883702326319417 1:-77.0 2:-77.57200461 3:1.0 4:1.404179711 5:7.0 6:3.109447005
-0.47222089160198233 1:-81.0 2:-77.69428024 3:1.0 4:1.013099563 5:0.0 6:1.597619048
-0.49003369705298744 1:-82.33333333 2:-79.23793103 3:1.0 4:1.676210093 5:7.0 6:2.752873563
-0.3883663469337455 1:-90.5 2:-82.5984319 3:1.0 4:0.980518052 5:6.0 6:1.9
-0.3858639800871404 1:-92.0 2:-81.25 3:1.0 4:0.0 5:0.0 6:0.0
-50.0 1:-50.0 2:-79.24444444 3:1.0 4:2.191228304 5:1.0 6:3.0
-40.41508092302591 1:-49.33333333 2:-80.11196581 3:1.0 4:2.357023069 5:3.0 6:3.869230769
-1.3407081680163402 1:-56.0 2:-79.52740937 3:1.0 4:2.255189424 5:16.0 6:4.320512821
-0.765773292317448 1:-61.75 2:-78.70002842 3:1.0 4:1.761864826 5:24.0 6:2.912087912
-0.5321931227814419 1:-69.66666667 2:-77.67560871 3:1.0 4:0.590334284 5:7.0 6:0.022624434
-0.06670987551709871 1:-70.33333333 2:-77.56339869 3:1.0 4:1.69610261 5:2.0 6:2.043137255
-1.5531087355442592 1:-76.0 2:-77.23452381 3:1.0 4:1.479276728 5:22.0 6:0.571428571
-0.2728721765555276 1:-79.0 2:-77.53624795 3:1.0 4:1.248645042 5:3.0 6:2.159770115
-0.5251987633956829 1:-82.0 2:-77.30388615 3:1.0 4:0.785456465 5:5.0 6:1.561904762
-0.5121836376841713 1:-84.66666667 2:-80.0966811 3:1.0 4:1.894684941 5:5.0 6:3.780952381
-0.7940920884341227 1:-88.5 2:-82.33639971 3:1.0 4:1.613771232 5:6.0 6:3.557575758
-0.5819232091800144 1:-90.0 2:-83.00656288 3:1.0 4:0.811532491 5:4.0 6:1.008791209
-0.7166816037625938 1:-92.25 2:-82.54844322 3:0.0 4:1.396470857 5:5.0 6:3.252380952
-0.5075299275562276 1:-92.66666667 2:-82.13125763 3:0.0 4:1.371471244 5:5.0 6:2.375457875
-0.6575990481544864 1:-96.0 2:-80.54761905 3:0.0 4:0.0 5:0.0 6:0.0
-7.049723934280612 1:-53.0 2:-79.69230769 3:1.0 4:2.56829785 5:7.0 6:5.115384615
-50.0 1:-51.0 2:-81.11166253 3:1.0 4:1.084360858 5:5.0 6:1.296526055
-4.038869399667701 1:-57.0 2:-81.20494281 3:1.0 4:0.938131338 5:14.0 6:1.874005305
-1.200759809796199 1:-64.25 2:-79.53761024 3:1.0 4:1.474235593 5:15.0 6:3.183990442
-0.273468422671069 1:-66.75 2:-78.86595126 3:1.0 4:0.946775705 5:3.0 6:1.669950739
-0.9468396035179961 1:-69.33333333 2:-79.48888889 3:1.0 4:0.794772224 5:10.0 6:1.395238095
-0.17927464493873674 1:-70.66666667 2:-79.2984127 3:1.0 4:1.124619697 5:5.0 6:1.928571429
-0.3797358232149578 1:-73.75 2:-78.17595579 3:1.0 4:1.274149439 5:6.0 6:3.003703704
-0.38711260276661363 1:-77.66666667 2:-76.53973765 3:1.0 4:0.684520461 5:1.0 6:1.212962963
-0.632425971912722 1:-78.0 2:-76.50610632 3:1.0 4:0.655179799 5:4.0 6:0.044181034
-0.1723747143861675 1:-83.25 2:-78.75301724 3:1.0 4:2.87779809 5:13.0 6:5.821428571
-1.1689471438599544 1:-86.5 2:-80.94676724 3:1.0 4:3.156616422 5:11.0 6:7.662931034
-1.1177710579331197 1:-91.0 2:-83.96547619 3:1.0 4:2.169102176 5:0.0 6:4.228571429
-0.9091494036045975 1:-91.0 2:-85.1625 3:1.0 4:0.901561146 5:0.0 6:1.275
-1.481735373264028 1:-56.5 2:-78.95297066 3:1.0 4:3.462370666 5:5.0 6:6.095238095
-3.6542843636964064 1:-57.0 2:-78.98782212 3:1.0 4:1.976598572 5:13.0 6:3.479757085
-13.385035731095224 1:-52.0 2:-79.91910867 3:1.0 4:1.777866274 5:4.0 6:2.678571429
-0.7121183337394386 1:-58.75 2:-78.84277066 3:1.0 4:2.500150385 5:16.0 6:3.750712251
-0.649687419146758 1:-63.0 2:-77.66435185 3:1.0 4:2.044604001 5:19.0 6:4.027777778
-0.4279480067369389 1:-72.66666667 2:-78.07160992 3:1.0 4:1.339842471 5:15.0 6:2.541218638
-0.5298783151219626 1:-77.25 2:-78.49554772 3:1.0 4:0.44318603 5:13.0 6:0.40625
-0.04652344833962806 1:-80.5 2:-77.87992272 3:1.0 4:1.265889839 5:6.0 6:2.996774194
-0.11754329471075164 1:-80.33333333 2:-76.82820513 3:1.0 4:1.024733573 5:6.0 6:1.9
-0.984410122891084 1:-82.25 2:-79.14563301 3:1.0 4:2.395220133 5:9.0 6:5.282051282
-1.9210545191959092 1:-53.5 2:-78.82784305 3:1.0 4:2.294530669 5:5.0 6:5.549342105
-7.525696360109067 1:-50.33333333 2:-77.69810891 3:1.0 4:1.249471712 5:3.0 6:0.25974026
-9.95050678830866 1:-51.0 2:-77.2417597 3:1.0 4:1.17536531 5:2.0 6:0.653508772
-2.6572790281605223 1:-55.66666667 2:-77.49971942 3:1.0 4:0.907630832 5:15.0 6:1.508417508
-0.9550847642297019 1:-63.5 2:-77.49949735 3:1.0 4:0.978969548 5:16.0 6:0.163333333
-0.24803283777498605 1:-68.0 2:-77.90494607 3:1.0 4:0.992865288 5:2.0 6:1.501424501
-0.20436276334705367 1:-70.33333333 2:-78.32520147 3:1.0 4:1.15345342 5:11.0 6:2.277142857
-1.2149337308006347 1:-75.0 2:-79.94369609 3:1.0 4:1.772843395 5:12.0 6:3.397022333
-0.785796510239981 1:-79.75 2:-79.61288189 3:1.0 4:1.593218907 5:2.0 6:0.875661376
-1.1671214487709394 1:-80.75 2:-79.31063321 3:1.0 4:1.763487538 5:1.0 6:3.787335723
-0.2906296746513994 1:-86.66666667 2:-80.48293157 3:1.0 4:2.070033205 5:8.0 6:3.945601852
-0.5444878639473245 1:-89.0 2:-83.01372365 3:1.0 4:1.600070371 5:0.0 6:3.128590971
-0.08056247576661764 1:-89.0 2:-80.93023256 3:1.0 4:0.0 5:0.0 6:0.0
-0.39015915780081856 1:-50.25 2:-76.10212418 3:1.0 4:2.235051037 5:1.0 6:4.64379085
-3.7469179610818353 1:-49.75 2:-76.20187166 3:1.0 4:2.356873133 5:1.0 6:0.631016043
-3.3836055772536318 1:-48.66666667 2:-77.57664884 3:1.0 4:3.802712801 5:3.0 6:7.451871658
-0.9886435127042836 1:-62.25 2:-78.06206294 3:1.0 4:2.242955667 5:20.0 6:4.613636364
-0.6684268692354867 1:-68.0 2:-76.67948718 3:1.0 4:1.532279245 5:3.0 6:3.551282051
-0.3685202646127333 1:-72.66666667 2:-76.78111111 3:1.0 4:1.773998413 5:14.0 6:2.51
-0.597708679321416 1:-74.33333333 2:-77.21861111 3:1.0 4:1.739024378 5:2.0 6:2.229166667
-0.5426898526477195 1:-76.75 2:-78.0634375 3:1.0 4:1.373272921 5:0.0 6:2.36
-1.2734416639666681 1:-78.25 2:-77.97949811 3:1.0 4:1.325950368 5:15.0 6:0.861742424
-0.22421047387272425 1:-81.0 2:-78.49165088 3:1.0 4:1.495939487 5:10.0 6:0.079861111
-0.9865137094015913 1:-86.33333333 2:-80.16864726 3:1.0 4:2.079991231 5:2.0 6:4.046345811
-0.27926995516447395 1:-87.66666667 2:-81.116122 3:1.0 4:1.435670619 5:8.0 6:1.655555556
-0.16740450182377695 1:-91.0 2:-84.22410866 3:1.0 4:0.093640626 5:0.0 6:0.132427844
-5.268233742878376 1:-55.0 2:-78.68621554 3:1.0 4:0.944655781 5:5.0 6:1.542857143
-4.4985964214063445 1:-51.0 2:-79.0475188 3:1.0 4:0.617313973 5:10.0 6:1.155789474
-1.007776626201559 1:-54.5 2:-78.86857143 3:1.0 4:0.617372091 5:21.0 6:0.542857143
-0.8984469221578641 1:-61.66666667 2:-77.80888889 3:1.0 4:1.013362573 5:17.0 6:1.493333333
-1.4089991252842655 1:-65.66666667 2:-76.90940171 3:1.0 4:1.58324838 5:12.0 6:3.138461538
-1.2603146056006513 1:-65.33333333 2:-76.61217949 3:1.0 4:1.124388028 5:6.0 6:1.041666667
-1.1016116597627421 1:-68.66666667 2:-76.94948107 3:1.0 4:1.288682023 5:15.0 6:2.217032967
-0.18824614729075545 1:-76.25 2:-77.19494048 3:1.0 4:0.940443226 5:8.0 6:1.922619048
-0.6138958171453441 1:-81.66666667 2:-77.25960591 3:1.0 4:1.504580354 5:9.0 6:3.007389163
-0.1575356066136453 1:-88.0 2:-80.81992337 3:1.0 4:2.107631458 5:1.0 6:1.873563218
-0.7667804372357949 1:-87.0 2:-80.77777778 3:1.0 4:0.0 5:0.0 6:0.0
-1.5122227835956643 1:-54.33333333 2:-75.74175824 3:1.0 4:2.33965954 5:6.0 6:4.274725275
-1.9669467364985387 1:-52.0 2:-75.57417582 3:1.0 4:1.710245191 5:3.0 6:3.357142857
-1.1511425215378988 1:-53.25 2:-77.16346154 3:1.0 4:3.013509196 5:3.0 6:6.846153846
-1.7210004872881837 1:-56.66666667 2:-77.95238095 3:1.0 4:3.071705414 5:18.0 6:3.142857143
-1.1952098325922411 1:-65.33333333 2:-77.50793651 3:1.0 4:3.156655616 5:24.0 6:4.333333333
-0.1849436386301667 1:-69.33333333 2:-76.19929453 3:1.0 4:1.180052346 5:4.0 6:2.216931217
-1.077733229971026 1:-71.66666667 2:-77.49691358 3:1.0 4:1.10415777 5:1.0 6:2.083333333
-0.795456656320674 1:-77.66666667 2:-78.92358025 3:1.0 4:0.308703278 5:5.0 6:0.009259259
-0.32157394711522996 1:-84.0 2:-78.67772565 3:1.0 4:1.368850902 5:11.0 6:2.345021038
-0.9440860767151511 1:-87.66666667 2:-80.48448894 3:1.0 4:2.742650991 5:10.0 6:5.471264368
-1.8471211883388308 1:-47.5 2:-78.04742555 3:1.0 4:3.112112816 5:10.0 6:6.94047619
-50.0 1:-50.33333333 2:-80.99401838 3:1.0 4:2.045989309 5:0.0 6:3.528421053
-50.0 1:-49.66666667 2:-81.14349206 3:1.0 4:1.787101514 5:6.0 6:3.11047619
-2.34171646105889 1:-56.75 2:-78.87766382 3:1.0 4:2.466853729 5:22.0 6:5.852307692
-0.031821938981267894 1:-62.5 2:-77.5608781 3:1.0 4:1.222855976 5:25.0 6:2.187142857
-0.1098220155749836 1:-74.66666667 2:-77.80041475 3:1.0 4:0.839223121 5:4.0 6:1.067142857
-0.7911723785851469 1:-79.75 2:-78.41857143 3:1.0 4:0.584602894 5:8.0 6:0.04
-0.484390368709949 1:-85.0 2:-80.38541667 3:1.0 4:2.507865232 5:6.0 6:5.0
-0.8024516399221732 1:-87.0 2:-81.64467593 3:1.0 4:1.426539727 5:9.0 6:1.621527778
-0.16421308741089527 1:-90.0 2:-81.57175926 3:1.0 4:1.541609317 5:0.0 6:3.0625
-50.0 1:-46.75 2:-79.39689755 3:1.0 4:0.796285683 5:1.0 6:1.349206349
-41.13933852333552 1:-48.66666667 2:-78.72760943 3:1.0 4:1.421467435 5:3.0 6:2.827272727
-26.90727880686057 1:-48.25 2:-77.92323671 3:1.0 4:0.713663772 5:1.0 6:1.338164251
-1.0530799593272784 1:-53.75 2:-78.06319398 3:1.0 4:0.907558133 5:18.0 6:1.715384615
-1.5531464540137856 1:-66.33333333 2:-77.94425864 3:1.0 4:1.024020975 5:34.0 6:0.282608696
-0.6556158225929638 1:-76.75 2:-78.45665323 3:1.0 4:1.187746428 5:0.0 6:1.5
-0.33245928538525893 1:-81.0 2:-78.2566679 3:1.0 4:0.630495045 5:11.0 6:0.315053763
-1.0551398527384446 1:-85.5 2:-79.51787971 3:1.0 4:1.900007241 5:13.0 6:4.26645768
-0.558466048065527 1:-89.75 2:-80.54374178 3:1.0 4:1.562344705 5:4.0 6:3.203559511
-0.05898966040995619 1:-91.66666667 2:-81.18953078 3:1.0 4:0.951183668 5:4.0 6:1.722943723
-0.8951594927135315 1:-93.0 2:-80.16124795 3:1.0 4:1.462037578 5:0.0 6:2.92183908
-0.6229741382625269 1:-93.0 2:-79.41428571 3:1.0 4:0.963012092 5:0.0 6:1.361904762
-3.7114798309342776 1:-49.5 2:-77.71716055 3:1.0 4:0.239326156 5:9.0 6:0.428571429
-13.24807762109823 1:-51.66666667 2:-78.25511696 3:1.0 4:0.935456332 5:0.0 6:1.817982456
-14.98062013403943 1:-51.66666667 2:-78.21722222 3:1.0 4:0.983983307 5:5.0 6:0.64
-1.1777415831944145 1:-66.5 2:-77.04085979 3:1.0 4:1.909520599 5:24.0 6:1.936296296
-0.06239215708853903 1:-72.33333333 2:-77.83781305 3:1.0 4:1.287865039 5:5.0 6:0.502857143
-0.3762595879302865 1:-70.0 2:-77.71876543 3:1.0 4:1.432254419 5:7.0 6:2.796296296
-0.8723956925814202 1:-71.75 2:-76.215 3:1.0 4:1.466003638 5:6.0 6:3.28
-0.9518977334858534 1:-73.25 2:-75.91666667 3:1.0 4:1.262642731 5:8.0 6:0.333333333
-0.8960355052333934 1:-76.0 2:-75.2865233 3:1.0 4:1.0809428 5:3.0 6:1.532903226
-0.11012446692830286 1:-77.66666667 2:-76.63763441 3:1.0 4:1.324575382 5:5.0 6:1.966666667
-0.3714275125936676 1:-85.0 2:-80.54730114 3:1.0 4:2.08724965 5:7.0 6:5.078787879
-0.4893871793450885 1:-87.0 2:-81.6444005 3:1.0 4:1.326044629 5:0.0 6:0.21625
-1.231698188438676 1:-89.5 2:-82.13128139 3:0.0 4:1.193164751 5:10.0 6:0.608347627
-1.4810549082833702 1:-93.66666667 2:-81.39337907 3:0.0 4:1.10454594 5:10.0 6:0.696363636
-1.0177432018483743 1:-97.0 2:-81.87006861 3:0.0 4:1.037615525 5:0.0 6:1.467409949
-0.429648585067968 1:-97.0 2:-81.13636364 3:0.0 4:0.0 5:0.0 6:0.0
-8.70857881092436 1:-49.75 2:-77.58318078 3:1.0 4:1.885669737 5:1.0 6:1.330434783
-0.48533352401930646 1:-51.0 2:-77.14429189 3:1.0 4:1.898509216 5:3.0 6:3.397660819
-1.7333916607053295 1:-53.66666667 2:-76.54406383 3:1.0 4:0.288875283 5:13.0 6:0.551383399
-1.0118997227969446 1:-63.0 2:-76.74696238 3:1.0 4:0.636461842 5:24.0 6:1.033816425
-0.5991705543006303 1:-70.0 2:-77.06795003 3:1.0 4:0.650284041 5:12.0 6:1.089225589
-0.4831644831354449 1:-74.0 2:-77.72105151 3:1.0 4:0.400666214 5:6.0 6:0.175925926
-1.0544316110447944 1:-84.0 2:-79.21111111 3:1.0 4:0.62922645 5:11.0 6:0.833333333
-1.0348918131973932 1:-87.66666667 2:-79.29820789 3:1.0 4:0.773746386 5:4.0 6:1.494623656
-0.6415328543487371 1:-89.0 2:-79.98507657 3:1.0 4:0.844210629 5:0.0 6:1.660606061
-38.36658780829725 1:-49.66666667 2:-79.20160249 3:1.0 4:1.278728098 5:6.0 6:2.35839599
-3.0907041005110876 1:-50.66666667 2:-79.55247968 3:1.0 4:0.680174187 5:7.0 6:0.983253589
-18.233603182515324 1:-49.0 2:-79.33660238 3:1.0 4:0.722720546 5:1.0 6:1.443064182
-2.992361485162215 1:-54.0 2:-78.02112619 3:1.0 4:2.187004682 5:11.0 6:3.956140351
-0.8246623123293277 1:-61.0 2:-76.40874933 3:1.0 4:1.995134694 5:24.0 6:2.911433172
-0.685348721530904 1:-67.0 2:-75.4691358 3:1.0 4:0.552563962 5:3.0 6:1.0
-0.7638116104193784 1:-68.66666667 2:-75.41863075 3:1.0 4:0.639775679 5:2.0 6:1.058922559
-0.8283983709768372 1:-71.75 2:-76.45378788 3:1.0 4:1.55259861 5:16.0 6:2.466666667
-0.4546769214757291 1:-75.25 2:-76.29717868 3:1.0 4:1.663666203 5:6.0 6:0.52507837
-0.6024753739469484 1:-81.66666667 2:-76.60229885 3:1.0 4:1.568553691 5:7.0 6:2.0
-1.0836144622489032 1:-81.0 2:-75.44482759 3:1.0 4:0.764499168 5:0.0 6:0.379310345
-1.0569047985758715 1:-83.33333333 2:-75.96961207 3:1.0 4:1.017874105 5:2.0 6:0.48125
-1.147766458247358 1:-84.0 2:-77.6716954 3:1.0 4:3.378516551 5:11.0 6:6.578663793
-0.11941348617344641 1:-88.0 2:-79.65721983 3:1.0 4:1.997178143 5:4.0 6:3.41875
-19.15915574312987 1:-48.66666667 2:-77.85814593 3:1.0 4:1.660803656 5:1.0 6:3.239655172
-0.9911363048094399 1:-53.25 2:-77.28110945 3:1.0 4:1.793034085 5:21.0 6:0.91626409
-0.20910557922009235 1:-60.0 2:-77.58312808 3:1.0 4:1.924473436 5:24.0 6:1.04679803
-0.9003662474925643 1:-71.75 2:-78.35061553 3:1.0 4:0.621573085 5:12.0 6:0.060606061
-0.6402854220678391 1:-76.0 2:-78.79303977 3:1.0 4:0.889609971 5:12.0 6:0.51875
-0.6118082752135697 1:-80.33333333 2:-78.81125541 3:1.0 4:0.885593675 5:11.0 6:0.451948052
-0.9256989607134116 1:-83.0 2:-79.06984127 3:1.0 4:0.652734234 5:3.0 6:0.933333333
-0.18260222681394103 1:-86.25 2:-80.42738095 3:1.0 4:2.110852264 5:3.0 6:4.457142857
-0.07933824169785063 1:-86.75 2:-81.42982456 3:1.0 4:1.85407473 5:5.0 6:3.685964912
-0.15661609837226062 1:-88.33333333 2:-82.86013645 3:1.0 4:0.266668964 5:1.0 6:0.027777778
-2.0749233422572666 1:-54.0 2:-78.75712121 3:1.0 4:1.08126414 5:17.0 6:0.651515152
-1.2815894556592584 1:-59.25 2:-78.65555871 3:1.0 4:1.004587262 5:23.0 6:0.38625
-0.5219901707678193 1:-70.33333333 2:-78.87598304 3:1.0 4:0.205403016 5:6.0 6:0.162770563
-0.7366867607280464 1:-72.5 2:-79.34051172 3:1.0 4:1.147481458 5:4.0 6:1.933277027
-0.8106182026527099 1:-75.25 2:-79.54784345 3:1.0 4:1.162853699 5:9.0 6:1.237362637
-0.8496412236542341 1:-79.33333333 2:-79.90493661 3:1.0 4:1.13126966 5:6.0 6:2.262321145
-0.7773365730365063 1:-82.25 2:-79.24 3:1.0 4:2.554479 5:14.0 6:4.766666667
-0.838503094911753 1:-92.0 2:-82.31507824 3:1.0 4:0.343336255 5:3.0 6:0.026315789
-0.5828449226620424 1:-93.0 2:-82.41700405 3:1.0 4:0.154590146 5:0.0 6:0.218623482
-7.131895675315296 1:-50.33333333 2:-78.29365079 3:1.0 4:1.855055807 5:5.0 6:3.547619048
-19.263506784228056 1:-52.25 2:-80.01687824 3:1.0 4:1.728726241 5:2.0 6:4.16091954
-4.2619319591181455 1:-55.25 2:-80.778783 3:1.0 4:0.731749173 5:12.0 6:0.333333333
-1.6303567434317592 1:-59.66666667 2:-80.01395731 3:1.0 4:2.24718613 5:15.0 6:4.327586207
-0.7700360792806744 1:-67.25 2:-79.31219212 3:1.0 4:1.334604762 5:7.0 6:1.266009852
-1.21559815785054 1:-67.5 2:-79.43091799 3:1.0 4:1.510450025 5:0.0 6:3.689189189
-1.5376919724056273 1:-67.66666667 2:-80.15534549 3:1.0 4:0.915303649 5:4.0 6:0.380295567
-1.1334930763072575 1:-66.33333333 2:-79.15534549 3:1.0 4:2.441104189 5:2.0 6:4.740913327
-0.5637374047990736 1:-71.25 2:-78.03991075 3:1.0 4:1.889583271 5:14.0 6:3.461904762
-0.4666631578807505 1:-73.75 2:-77.7445326 3:1.0 4:1.584498192 5:10.0 6:2.198782961
-0.6720635863140973 1:-82.0 2:-80.02757353 3:1.0 4:1.837552569 5:13.0 6:4.257352941
-0.17528638427636378 1:-85.5 2:-81.27022059 3:1.0 4:1.795637565 5:7.0 6:3.941176471
-0.6549077820475995 1:-89.0 2:-83.57142857 3:1.0 4:0.0 5:0.0 6:0.0