svm_type c_svc
kernel_type rbf
gamma 0.125
nr_class 2
total_sv 127
rho 0.951853
label 0 1
probA -1.92175
probB -0.267887
nr_sv 67 60
SV
1108.917721287952 1:0.766082 2:0.283643 3:1 4:-0.475702 5:-1 6:-0.525966
361.138210278377 1:0.684211 2:0.686434 3:1 4:0.49898 5:-0.814815 6:0.318841
2048 1:0.675439 2:0.595282 3:1 4:-0.778024 5:-0.62963 6:-0.89533
2048 1:0.578947 2:0.50227 3:1 4:-0.376541 5:-0.703704 6:-0.463998
2048 1:0.754386 2:0.782168 3:1 4:0.0586401 5:-1 6:-0.0338164
8.469136142240279 1:0.239766 2:-0.198298 3:1 4:-0.91213 5:0.037037 6:-0.932225
108.0038688368263 1:0.929825 2:-0.22592 3:1 4:-0.00305766 5:-0.851852 6:-0.0874343
1456.645316562201 1:0.605263 2:0.432617 3:1 4:-0.504467 5:-0.962963 6:-0.673913
1513.761149286387 1:0.640351 2:0.505699 3:1 4:-0.651626 5:-0.814815 6:-0.89694
2048 1:0.415205 2:0.257005 3:1 4:-0.430611 5:-0.740741 6:-0.479072
2048 1:0.684211 2:0.564821 3:1 4:-0.682533 5:-0.518519 6:-0.913043
132.3721403146364 1:0.122807 2:0.286266 3:1 4:0.411305 5:-1 6:-0.0865173
1666.597638411097 1:0.798246 2:0.56984 3:1 4:-0.31696 5:-0.962963 6:-0.235105
2048 1:0.552632 2:0.550628 3:1 4:-0.780236 5:-0.851852 6:-0.772361
2048 1:0.567251 2:0.558809 3:1 4:-0.763761 5:-0.962963 6:-0.798712
2048 1:0.54386 2:0.433284 3:1 4:-0.589633 5:-0.925926 6:-0.624968
1997.301166912505 1:0.707602 2:0.467422 3:1 4:-0.510202 5:-0.925926 6:-0.596003
2048 1:0.54386 2:0.443167 3:1 4:-0.464794 5:-0.851852 6:-0.511157
2048 1:0.517544 2:0.352173 3:1 4:-0.279647 5:-0.962963 6:-0.341356
2048 1:0.532164 2:0.588879 3:1 4:-0.310737 5:-0.962963 6:-0.515772
2048 1:0.497076 2:0.738135 3:1 4:-0.863556 5:-0.851852 6:-0.891837
2048 1:0.482456 2:0.607148 3:1 4:-0.645424 5:-0.962963 6:-0.657648
2048 1:0.377193 2:0.471577 3:1 4:-0.41769 5:-0.703704 6:-0.413559
547.1567159351006 1:0.730994 2:0.500527 3:1 4:-0.719806 5:0.0740741 6:-0.930079
2048 1:0.520468 2:0.470707 3:1 4:-0.641733 5:-0.888889 6:-0.673913
2048 1:0.614035 2:0.649015 3:1 4:-0.604397 5:-0.592593 6:-0.572119
2048 1:0.473684 2:0.491866 3:1 4:0.0400141 5:-0.222222 6:-0.187371
371.8174355201471 1:0.298246 2:0.470175 3:1 4:0.383661 5:-0.0740741 6:0.26294
783.5545386129714 1:0.80117 2:0.0694047 3:1 4:-0.700709 5:-1 6:-0.942029
1667.969546154885 1:0.789474 2:0.24036 3:1 4:-0.783469 5:-1 6:-0.807507
1944.164762449665 1:0.660819 2:0.985363 3:1 4:-0.671451 5:-0.666667 6:-0.879227
2048 1:0.520468 2:0.349561 3:1 4:-0.664202 5:-0.777778 6:-0.749482
1728.079248802397 1:0.555556 2:0.407794 3:1 4:-0.89893 5:-0.740741 6:-0.90942
2048 1:0.605263 2:0.399265 3:1 4:-0.446886 5:-0.555556 6:-0.770751
2048 1:0.497076 2:0.394697 3:1 4:-0.427055 5:-0.666667 6:-0.516469
2048 1:0.415205 2:0.397743 3:1 4:-0.285418 5:-0.555556 6:-0.456522
2048 1:0.461988 2:0.529276 3:1 4:-0.321123 5:-0.888889 6:-0.529791
96.99862555301925 1:-0.380117 2:-0.324946 3:1 4:-0.941343 5:-0.666667 6:-0.967569
2048 1:0.450292 2:0.425433 3:1 4:-0.134155 5:-0.703704 6:-0.229007
2048 1:0.345029 2:0.348389 3:1 4:-0.228355 5:-0.592593 6:-0.412213
2048 1:0.54386 2:0.569733 3:1 4:-0.855455 5:-0.444444 6:-0.915005
2048 1:0.157895 2:0.00523967 3:1 4:-0.463596 5:-0.259259 6:-0.536232
675.6120960008703 1:0.263158 2:0.0728058 3:1 4:-0.631784 5:-0.518519 6:-0.637681
2048 1:0.461988 2:0.379925 3:1 4:-0.86903 5:-0.62963 6:-0.981061
2048 1:0.54386 2:0.51015 3:1 4:-0.376131 5:-0.814815 6:-0.465525
2048 1:0.473684 2:0.64958 3:1 4:-0.48705 5:-0.407407 6:-0.6407
2048 1:0.695906 2:0.699277 3:1 4:-0.685286 5:-0.925926 6:-0.719807
1390.598793144472 1:-0.0760234 2:0.0985021 3:1 4:-0.385212 5:-0.851852 6:-0.451764
2048 1:-0.0175439 2:0.2114 3:1 4:-0.780841 5:-0.925926 6:-0.982163
355.1344118579536 1:-0.0263158 2:0.206225 3:1 4:-0.749558 5:-0.962963 6:-0.852437
2048 1:0.590643 2:0.565262 3:1 4:0.0267856 5:-0.740741 6:-0.0966184
2048 1:0.602339 2:0.743792 3:1 4:-0.636489 5:-0.962963 6:-0.902873
2048 1:0.660819 2:0.622908 3:1 4:-0.32326 5:-0.925926 6:-0.380764
1610.319707332906 1:0.719298 2:0.520432 3:1 4:-0.410841 5:-0.962963 6:-0.884058
1991.746615176508 1:0.675439 2:0.517964 3:1 4:-0.293646 5:-0.962963 6:-0.64007
2048 1:0.730994 2:0.616463 3:1 4:-0.208331 5:-1 6:-0.275362
2048 1:0.497076 2:0.373918 3:1 4:-0.300678 5:-0.777778 6:-0.492754
2048 1:0.587719 2:0.658447 3:1 4:-0.131693 5:-0.518519 6:-0.0378422
325.6630037511223 1:0.745614 2:1 3:1 4:-0.0768193 5:-0.925926 6:-0.114332
2048 1:0.578947 2:0.580872 3:1 4:-0.239203 5:-0.888889 6:-0.907773
2048 1:0.552632 2:0.727747 3:1 4:-0.375725 5:-0.703704 6:-0.889291
2048 1:0.80117 2:0.218998 3:1 4:-0.780727 5:-1 6:-0.799331
2048 1:0.578947 2:0.207752 3:1 4:-0.739442 5:-0.259259 6:-0.859464
2040.352796115751 1:0.622807 2:0.349619 3:1 4:-0.506946 5:-0.37037 6:-0.802372
2016.742902149873 1:0.719298 2:0.396017 3:1 4:-0.467707 5:-0.888889 6:-0.415459
2048 1:0.497076 2:0.507189 3:1 4:-0.560849 5:-0.62963 6:-0.608696
2048 1:0.701754 2:0.489347 3:1 4:-0.388871 5:-0.888889 6:-0.408696
-2048 1:0.578947 2:0.363291 3:1 4:-0.492958 5:-0.851852 6:-0.647428
-2048 1:0.450292 2:0.326232 3:1 4:-0.64097 5:-0.444444 6:-0.68254
-2048 1:0.649123 2:0.411889 3:1 4:-0.306136 5:-0.962963 6:-0.565217
-2048 1:0.672515 2:0.295627 3:1 4:-0.253636 5:-0.888889 6:-0.439242
-2048 1:0.438596 2:0.373967 3:1 4:-0.285883 5:-0.407407 6:-0.373839
-2048 1:0.54386 2:0.351868 3:1 4:-0.186735 5:-0.740741 6:-0.25864
-2048 1:0.614035 2:0.161653 3:1 4:-0.656632 5:-0.814815 6:-0.812098
-2048 1:0.403509 2:0.149152 3:1 4:-0.702936 5:-0.481481 6:-0.728405
-617.4961066023528 1:0.0614035 2:0.462613 3:1 4:-0.700199 5:-0.888889 6:-0.757978
-46.37370484295709 1:-0.789474 2:-0.220803 3:1 4:-0.313143 5:-1 6:-0.387164
-63.91297561838441 1:-0.789474 2:-0.381222 3:1 4:-0.714516 5:-1 6:-0.815217
-445.4597150038701 1:-0.789474 2:-0.381222 3:1 4:-0.714516 5:-1 6:-0.815217
-2048 1:0.421053 2:0.450951 3:1 4:0.0963776 5:-0.814815 6:-0.116632
-2048 1:0.403509 2:0.44628 3:1 4:-0.3741 5:-0.518519 6:-0.495687
-2048 1:0.578947 2:0.321473 3:1 4:-0.437029 5:-0.851852 6:-0.611801
-2048 1:0.342105 2:0.465719 3:1 4:-0.208314 5:-0.407407 6:-0.456419
-2048 1:0.526316 2:0.46772 3:1 4:-0.273425 5:-0.814815 6:-0.195748
-2048 1:0.637427 2:0.619122 3:1 4:-0.604348 5:-0.888889 6:-0.962356
-2048 1:0.614035 2:0.680279 3:1 4:-0.627814 5:-0.925926 6:-0.905289
-2048 1:0.640351 2:0.833008 3:1 4:-0.29226 5:-0.962963 6:-0.326987
-2048 1:0.657895 2:0.81964 3:1 4:-0.253684 5:-0.962963 6:-0.908548
-2048 1:0.695906 2:0.635399 3:1 4:0.204149 5:-0.888889 6:0.0799814
-2048 1:0.497076 2:0.390917 3:1 4:-0.593142 5:-0.333333 6:-0.937671
-2048 1:0.473684 2:0.4867 3:1 4:-0.70087 5:-0.814815 6:-0.776398
-2048 1:0.614035 2:0.43828 3:1 4:-0.804524 5:-0.62963 6:-0.832494
-2048 1:0.578947 2:0.903761 3:1 4:-0.458442 5:-0.888889 6:-0.513458
-2048 1:0.535088 2:0.690773 3:1 4:-0.0457567 5:-0.888889 6:-0.00780379
-2048 1:0.415205 2:0.585045 3:1 4:-0.0273286 5:-0.333333 6:-0.544513
-2048 1:0.736842 2:0.572308 3:1 4:-0.0145334 5:-0.62963 6:0.00586611
-2048 1:0.637427 2:0.177419 3:1 4:-0.352127 5:-1 6:-0.488635
-2048 1:0.660819 2:0.157387 3:1 4:-0.434105 5:-0.777778 6:-0.549206
-1529.416765626635 1:0.412281 2:0.461043 3:1 4:-0.218858 5:-0.185185 6:-0.151839
-2048 1:0.763158 2:0.391458 3:1 4:-0.747852 5:-0.962963 6:-0.804463
-2048 1:0.695906 2:0.481153 3:1 4:-0.549885 5:-0.888889 6:-0.59025
-2048 1:0.710526 2:0.588951 3:1 4:-0.774015 5:-0.962963 6:-0.806063
-2048 1:0.517544 2:0.570194 3:1 4:-0.712617 5:-0.333333 6:-0.751394
-2048 1:0.666667 2:0.616568 3:1 4:-0.924216 5:-0.666667 6:-0.937888
-2048 1:0.590643 2:0.544474 3:1 4:-0.703783 5:-1 6:-0.736524
-2048 1:0.590643 2:0.549552 3:1 4:-0.688417 5:-0.814815 6:-0.907246
-2048 1:0.625731 2:0.539556 3:1 4:-0.522963 5:-0.814815 6:-0.563946
-2048 1:0.657895 2:0.634524 3:1 4:-0.402893 5:-0.962963 6:-0.807183
-2048 1:0.614035 2:0.693342 3:1 4:-0.398827 5:-0.888889 6:-0.507585
-2048 1:0.520468 2:0.773781 3:1 4:-0.908526 5:-0.518519 6:-0.920089
-2048 1:0.660819 2:0.41763 3:1 4:-0.595084 5:-0.777778 6:-0.658203
-2048 1:0.625731 2:0.370607 3:1 4:-0.784619 5:-0.740741 6:-0.857499
-2048 1:0.684211 2:0.399538 3:1 4:-0.771147 5:-0.962963 6:-0.79086
-2048 1:0.508772 2:0.575832 3:1 4:-0.307474 5:-0.592593 6:-0.426646
-2048 1:0.730994 2:0.587695 3:1 4:-0.434964 5:-1 6:-0.640832
-2048 1:0.695906 2:0.597674 3:1 4:-0.474098 5:-0.962963 6:-0.530485
-668.4582788956782 1:0.535088 2:0.675006 3:1 4:-0.432226 5:-0.222222 6:-0.867208
-2048 1:0.640351 2:0.631333 3:1 4:-0.625894 5:-0.814815 6:-0.634561
-2048 1:0.602339 2:0.608053 3:1 4:-0.527852 5:-1 6:-0.637681
-2048 1:0.625731 2:0.497267 3:1 4:-0.515899 5:-0.777778 6:-0.617696
-2048 1:0.508772 2:0.477198 3:1 4:-0.657612 5:-0.37037 6:-0.905578
-2048 1:0.637427 2:0.53931 3:1 4:-0.412587 5:-0.814815 6:-0.485852
-2048 1:0.570175 2:0.308371 3:1 4:-0.45259 5:-0.925926 6:-0.396968
-2048 1:0.464912 2:0.206264 3:1 4:-0.768288 5:-0.555556 6:-0.951691
-2048 1:0.309942 2:0.308762 3:1 4:-0.288417 5:-0.444444 6:-0.372814
-2048 1:0.0350877 2:0.386898 3:1 4:-0.521708 5:-1 6:-0.465335
-2048 1:0.0292398 2:0.289814 3:1 4:-0.710164 5:-0.851852 6:-0.944885