svm_type c_svc
kernel_type rbf
gamma 0.5
nr_class 2
total_sv 7
rho 0.924059
label 0 1
probA -2.5677
probB -0.174351
nr_sv 3 4
SV
2.758342731685154 18:0.307393 19:0.321519 24:-0.629228 26:-0.684538
7.680030212571464 18:0.354086 19:0.0247601 24:-0.99052 26:-0.991905
32 18:0.128405 19:-0.719926 24:0.678487 26:0.630431
-29.03549095141949 18:0.07393 19:-0.730299 24:0.838822 26:0.812418
-4.047418032707506 18:-0.540856 19:-0.235727 24:0.295003 26:0.245253
-3.47007128835776 18:-0.0505837 19:0.252203 24:-0.993729 26:-0.989308
-5.885392671771862 18:-0.0972763 19:0.129657 24:-0.926294 26:-0.927744
