svm_type c_svc
kernel_type rbf
gamma 0.5
nr_class 2
total_sv 208
rho -0.515031
label 0 1
probA -2.23623
probB 0.0049149
nr_sv 115 93
SV
4.049947179302612 1:-0.198987 2:-0.198862 3:-0.198315 4:-0.734019 5:-0.959997 6:-0.891278 7:-0.661354 8:-0.896959 9:-0.731191 10:-0.75848 11:-0.809884 12:-0.993722 13:-0.826504 14:-0.822267 15:-0.837583 16:-0.917187 17:-0.814693 18:0.578947 19:0.476556 20:1 21:-1 22:-1 23:-1
2.442603804689435 1:-0.198902 2:-0.198374 3:-0.1985 4:-0.752041 5:-0.954796 6:-0.993265 7:-0.41633 8:-0.955007 9:-0.964503 10:-0.980831 11:-0.845345 12:-0.875266 13:-0.962679 14:-0.906528 15:-0.964435 16:-0.752947 17:-0.954714 18:0.578947 19:0.476556 20:1 21:-1 22:-1 23:-1
16.28222435949978 1:-0.198784 2:-0.198605 3:-0.198185 4:-0.853462 5:-0.9475 6:-0.983836 7:-0.85232 8:-0.784659 9:-0.964747 10:-0.994822 11:-0.876708 12:-0.967352 13:-0.930712 14:-0.925412 15:-0.964678 16:-0.907659 17:-0.784391 18:0.578947 19:0.476556 20:1 21:-1 22:-1 23:-1
6.211001639878406 1:-0.198823 2:-0.198605 3:-0.198224 4:-0.825108 5:-0.949905 6:-0.840285 7:-0.902754 8:-0.972758 9:-0.598127 10:-0.795191 11:-0.810279 12:-0.791556 13:-0.778513 14:-0.795191 15:-0.598071 16:-0.992581 17:-0.972462 18:0.684211 19:0.291112 20:1 21:-0.38033 22:-0.777778 23:-0.598912
8.330613418599462 1:-0.198347 2:-0.198035 3:-0.198823 4:-0.553825 5:-0.920662 6:-0.474864 7:-0.720406 8:-0.923035 9:-0.993038 10:-0.922889 11:-0.674264 12:-0.868649 13:-0.978697 14:-0.922889 15:-0.992968 16:-0.995983 17:-0.922747 18:0.684211 19:0.0270978 20:1 21:-0.709357 22:-0.851852 23:-0.811878
1.075230795830951 1:-0.198261 2:-0.198006 3:-0.198017 4:-0.745047 5:-0.91536 6:-0.897532 7:-0.973803 8:-0.791736 9:-0.967253 10:-0.92015 11:-0.995533 12:-0.626628 13:-0.806977 14:-0.92015 15:-0.967185 16:-0.832865 17:-0.791467 18:0.72807 19:0.215461 20:1 21:-0.381369 22:-1 23:-0.497585
7.791230739361318 1:-0.19823 2:-0.198006 3:-0.198017 4:-0.726497 5:-0.913464 6:-0.774041 7:-0.770792 8:-0.858942 9:-0.382407 10:-0.506029 11:-0.446185 12:-0.741249 13:-0.508589 14:-0.506029 15:-0.382359 16:-0.685533 17:-0.858664 18:0.719298 19:0.269754 20:1 21:-0.394539 22:-0.962963 23:-0.602597
0.9570747774010223 1:-0.19832 2:-0.19805 3:-0.197566 4:-0.84873 5:-0.918989 6:-0.911964 7:-0.906965 8:-0.928014 9:-0.971036 10:-0.982327 11:-0.921935 12:-0.9931 13:-0.897164 14:-0.982327 15:-0.970968 16:-0.936922 17:-0.927725 18:0.74269 19:0.477579 20:1 21:-0.693391 22:-1 23:-0.939614
0.2756787750770977 1:-0.197965 2:-0.197872 3:-0.197443 4:-0.731297 5:-0.897137 6:-0.995334 7:-0.611507 8:-0.579492 9:-0.767721 10:-0.560919 11:-0.547651 12:-0.992966 13:-0.688002 14:-0.560919 15:-0.767659 16:-0.495246 17:-0.579255 18:0.426901 19:-0.233247 20:1 21:-0.742251 22:-0.222222 23:-0.766304
3.199847815276328 1:-0.198559 2:-0.198369 3:-0.197917 4:-0.839505 5:-0.933676 6:-0.456872 7:-0.567144 8:-0.586602 9:-0.523559 10:-0.554085 11:-0.486938 12:-0.799398 13:-0.519277 14:-0.554085 15:-0.523506 16:-0.611767 17:-0.586364 18:0.637427 19:0.145347 20:1 21:-0.0100059 22:-0.962963 23:-0.859903
1.025804990316392 1:-0.198266 2:-0.198072 3:-0.19856 4:-0.75207 5:-0.915633 6:-0.547602 7:-0.535806 8:-0.881656 9:-0.911821 10:-0.84083 11:-0.678409 12:-0.985555 13:-0.734192 14:-0.84083 15:-0.911754 16:-0.972845 17:-0.881374 18:0.561404 19:0.310168 20:1 21:1 22:-0.222222 23:1
2.930008412103123 1:-0.198359 2:-0.198355 3:-0.197675 4:-0.914048 5:-0.921391 6:-0.863136 7:-0.734019 8:-0.951177 9:-0.79021 10:-0.817473 11:-0.659407 12:-0.75193 13:-0.631001 14:-0.817473 15:-0.790147 16:-0.925807 17:-0.950884 18:0.684211 19:0.686434 20:1 21:0.49898 22:-0.814815 23:0.318841
0.8636660265285339 1:-0.198616 2:-0.198678 3:-0.197814 4:-0.92401 5:-0.937202 6:-0.567181 7:-0.947999 8:-0.842191 9:-0.898928 10:-0.971934 11:-0.914791 12:-0.912628 13:-0.936996 14:-0.971934 15:-0.898862 16:-0.857005 17:-0.841915 18:0.675439 19:0.595282 20:1 21:-0.778024 22:-0.62963 23:-0.89533
17.67001647780273 1:-0.198538 2:-0.198158 3:-0.197866 4:-0.826361 5:-0.932373 6:-0.559629 7:-0.548145 8:-0.744977 9:-0.661729 10:-0.740531 11:-0.678476 12:-0.708036 13:-0.631815 14:-0.740531 15:-0.661671 16:-0.699985 17:-0.744716 18:0.622807 19:0.596752 20:1 21:-0.777634 22:-0.814815 23:-0.994279
3.255335321804615 1:-0.198448 2:-0.198158 3:-0.199001 4:-0.663248 5:-0.926824 6:-0.715351 7:-0.328682 8:-0.850933 9:-0.887464 10:-0.908951 11:-0.989416 12:-0.958531 13:-0.827968 14:-0.908951 15:-0.887398 16:-0.878435 17:-0.850656 18:0.578947 19:0.50227 20:1 21:-0.376541 22:-0.703704 23:-0.463998
31.20536646724101 1:-0.197313 2:-0.197314 3:-0.196646 4:-0.921417 5:-0.857036 6:-0.876557 7:-0.744644 8:-0.702066 9:-0.700881 10:-0.784644 11:-0.898003 12:-0.968877 13:-0.985134 14:-0.784644 15:-0.700822 16:-0.65759 17:-0.701811 18:0.754386 19:0.782168 20:1 21:0.0586401 22:-1 23:-0.0338164
6.468734603162661 1:-0.197559 2:-0.19755 3:-0.196712 4:-0.902169 5:-0.872165 6:-0.744552 7:-0.997062 8:-0.95479 9:-0.981283 10:-0.908161 11:-0.948703 12:-0.972317 13:-0.925585 14:-0.908161 15:-0.981214 16:-0.968481 17:-0.954497 18:0.239766 19:-0.198298 20:1 21:-0.91213 22:0.037037 23:-0.932225
0.1502261271465594 1:-0.197577 2:-0.197547 3:-0.196733 4:-0.935797 5:-0.873281 6:-0.984846 7:-0.884931 8:-0.859425 9:-0.785023 10:-0.872739 11:-0.828369 12:-0.795344 13:-0.926265 14:-0.872739 15:-0.78496 16:-0.85076 17:-0.859147 18:0.605263 19:-0.0383516 20:1 21:-0.531131 22:1 23:-0.949275
22.57427984398865 1:-0.197108 2:-0.196943 3:-0.196811 4:-0.892542 5:-0.84443 6:-0.755761 7:-0.877586 8:-0.915858 9:-0.972614 10:-0.99967 11:-0.853065 12:-0.93028 13:-0.840145 14:-0.99967 15:-0.972546 16:-0.967107 17:-0.915571 18:0.614035 19:0.398102 20:1 21:-0.609006 22:-1 23:-0.677714
32 1:-0.197292 2:-0.197087 3:-0.196437 4:-0.888271 5:-0.855725 6:-0.908116 7:-0.903489 8:-0.897458 9:-0.870115 10:-0.922544 11:-0.995224 12:-0.878373 13:-0.98884 14:-0.922544 15:-0.87005 16:-0.852948 17:-0.897174 18:0.640351 19:0.505699 20:1 21:-0.651626 22:-0.814815 23:-0.89694
9.512238171932884 1:-0.197243 2:-0.197102 3:-0.196465 4:-0.852498 5:-0.85271 6:-0.764805 7:-0.629673 8:-0.877726 9:-0.919061 10:-0.91528 11:-0.798904 12:-0.971557 13:-0.819191 14:-0.91528 15:-0.918995 16:-0.937083 17:-0.877444 18:0.614035 19:0.236179 20:1 21:-0.703405 22:-0.740741 23:-0.7343
32 1:-0.196985 2:-0.196868 3:-0.196283 4:-0.878116 5:-0.836865 6:-0.895415 7:-0.899816 8:-0.698103 9:-0.871067 10:-0.900361 11:-0.878432 12:-0.858589 13:-0.930859 14:-0.900361 15:-0.871002 16:-0.707257 17:-0.697848 18:0.684211 19:0.564821 20:1 21:-0.682533 22:-0.518519 23:-0.913043
15.01462867682434 1:-0.196932 2:-0.196868 3:-0.196405 4:-0.889395 5:-0.833577 6:-0.664694 7:-0.783572 8:-0.964748 9:-0.786972 10:-0.928688 11:-0.751638 12:-0.983143 13:-0.823576 14:-0.928688 15:-0.78691 16:-0.92921 17:-0.964454 18:0.637427 19:0.479282 20:1 21:-0.509775 22:-0.851852 23:-0.898785
22.01981226367237 1:-0.196776 2:-0.196713 3:-0.196409 4:-0.882016 5:-0.823998 6:-0.738009 7:-0.604358 8:-0.818445 9:-0.913851 10:-0.999294 11:-0.957959 12:-0.998895 13:-0.899988 14:-0.999294 15:-0.913785 16:-0.994916 17:-0.818173 18:0.74269 19:0.360869 20:1 21:-0.425336 22:-0.814815 23:-0.585812
22.65586064099563 1:-0.196619 2:-0.196659 3:-0.19599 4:-0.898439 5:-0.814324 6:-0.868475 7:-0.865345 8:-0.950178 9:-0.90487 10:-0.920856 11:-0.9735 12:-0.964983 13:-0.979334 14:-0.920856 15:-0.904803 16:-0.924206 17:-0.949886 18:0.508772 19:0.371887 20:1 21:-0.726143 22:-0.962963 23:-0.777119
32 1:-0.196713 2:-0.196729 3:-0.195893 4:-0.941735 5:-0.820114 6:-0.623322 7:-0.871074 8:-0.87248 9:-0.845816 10:-0.917136 11:-0.905046 12:-0.906505 13:-0.900478 14:-0.917136 15:-0.845752 16:-0.862342 17:-0.8722 18:0.798246 19:0.56984 20:1 21:-0.31696 22:-0.962963 23:-0.235105
32 1:-0.196634 2:-0.196741 3:-0.19608 4:-0.900665 5:-0.815272 6:-0.631982 7:-0.622965 8:-0.965164 9:-0.944277 10:-0.905147 11:-0.964787 12:-0.985784 13:-0.939655 14:-0.905147 15:-0.944209 16:-0.903095 17:-0.96487 18:0.777778 19:0.620144 20:1 21:-0.395482 22:-0.962963 23:-0.492754
18.67272200453628 1:-0.196702 2:-0.196764 3:-0.195936 4:-0.920583 5:-0.819462 6:-0.630009 7:-0.623748 8:-0.830435 9:-0.763683 10:-0.837961 11:-0.831515 12:-0.924146 13:-0.86037 14:-0.837961 15:-0.763621 16:-0.828355 17:-0.83016 18:0.54386 19:0.16278 20:1 21:-0.343225 22:-0.333333 23:-0.434922
15.06983456413464 1:-0.196089 2:-0.19615 3:-0.195323 4:-0.922834 5:-0.7817 6:-0.620436 7:-0.870731 8:-0.914376 9:-0.898859 10:-0.953939 11:-0.948878 12:-0.975371 13:-0.99823 14:-0.953939 15:-0.898793 16:-0.964718 17:-0.914089 18:0.54386 19:0.182579 20:1 21:0.331726 22:-0.703704 23:-0.0237345
3.58092374190391 1:-0.195545 2:-0.195668 3:-0.194856 4:-0.902788 5:-0.748217 6:-0.754943 7:-0.749982 8:-0.698402 9:-0.897025 10:-0.854652 11:-0.998759 12:-0.91934 13:-0.962318 14:-0.854652 15:-0.896959 16:-0.756564 17:-0.698148 18:0.54386 19:0.321124 20:1 21:-0.195547 22:-0.962963 23:-0.28744
13.90165571952663 1:-0.195612 2:-0.19534 3:-0.194849 4:-0.918477 5:-0.752341 6:-0.978833 7:-0.852124 8:-0.854546 9:-0.893521 10:-0.950433 11:-0.96523 12:-0.919259 13:-0.982929 14:-0.950433 15:-0.893455 16:-0.916506 17:-0.854268 18:0.587719 19:0.595807 20:1 21:-0.921227 22:-0.962963 23:-1
3.182827490084375 1:-0.195618 2:-0.195696 3:-0.194849 4:-0.948275 5:-0.752742 6:-0.754221 7:-0.878027 8:-0.99199 9:-0.994175 10:-0.974089 11:-0.945383 12:-0.958687 13:-0.888791 14:-0.974089 15:-0.994105 16:-0.973192 17:-0.991692 18:0.567251 19:0.558809 20:1 21:-0.763761 22:-0.962963 23:-0.798712
23.74378103649489 1:-0.195646 2:-0.19569 3:-0.195034 4:-0.89834 5:-0.754468 6:-0.881657 7:-0.752038 8:-0.991424 9:-0.79578 10:-0.960957 11:-0.866312 12:-0.887536 13:-0.891149 14:-0.960957 15:-0.795717 16:-0.972244 17:-0.991126 18:0.54386 19:0.433284 20:1 21:-0.589633 22:-0.925926 23:-0.624968
7.114725709368766 1:-0.195687 2:-0.19569 3:-0.195034 4:-0.901368 5:-0.757005 6:-0.868908 7:-0.991676 8:-0.772619 9:-0.931385 10:-0.985012 11:-0.887647 12:-0.99369 13:-0.912116 14:-0.985012 15:-0.931318 16:-0.926661 17:-0.772354 18:0.491228 19:0.224732 20:1 21:-0.439141 22:-0.814815 23:-0.399586
10.41801505571626 1:-0.195456 2:-0.195299 3:-0.19482 4:-0.864705 5:-0.742782 6:-0.623082 7:-0.614641 8:-0.946698 9:-0.742111 10:-0.976444 11:-0.821782 12:-0.999753 13:-0.878378 14:-0.976444 15:-0.74205 16:-0.914851 17:-0.946406 18:0.520468 19:0.493787 20:1 21:-0.0125976 22:-0.703704 23:-0.826087
32 1:-0.195403 2:-0.195449 3:-0.194636 4:-0.911128 5:-0.73948 6:-0.35681 7:-0.597013 8:-0.853164 9:-0.792786 10:-0.995758 11:-0.984701 12:-0.950858 13:-0.95087 14:-0.995758 15:-0.792723 16:-0.980571 17:-0.852887 18:0.54386 19:0.443167 20:1 21:-0.464794 22:-0.851852 23:-0.511157
32 1:-0.195259 2:-0.195324 3:-0.194495 4:-0.945272 5:-0.73063 6:-0.76798 7:-0.89017 8:-0.987894 9:-0.925722 10:-0.892076 11:-0.934672 12:-0.906784 13:-0.975995 14:-0.892076 15:-0.925655 16:-0.918868 17:-0.987596 18:0.517544 19:0.352173 20:1 21:-0.279647 22:-0.962963 23:-0.341356
32 1:-0.195241 2:-0.19518 3:-0.194495 4:-0.943024 5:-0.729538 6:-0.768605 7:-0.890905 8:-0.848718 9:-0.9014 10:-0.81946 11:-0.983373 12:-0.871537 13:-0.951305 14:-0.81946 15:-0.901334 16:-0.883906 17:-0.848441 18:0.532164 19:0.588879 20:1 21:-0.310737 22:-0.962963 23:-0.515772
32 1:-0.195204 2:-0.19518 3:-0.194529 4:-0.892243 5:-0.727244 6:-0.876028 7:-0.872689 8:-0.954674 9:-0.864186 10:-0.890143 11:-0.970052 12:-0.944128 13:-0.94469 14:-0.890143 15:-0.864121 16:-0.934427 17:-0.954381 18:0.497076 19:0.738135 20:1 21:-0.863556 22:-0.851852 23:-0.891837
19.10311323113448 1:-0.195175 2:-0.195191 3:-0.194529 4:-0.885745 5:-0.725486 6:-0.857844 7:-0.762517 8:-0.940187 9:-0.962496 10:-0.915817 11:-0.772136 12:-0.87439 13:-0.716269 14:-0.915817 15:-0.962427 16:-0.947918 17:-0.939896 18:0.482456 19:0.607148 20:1 21:-0.645424 22:-0.962963 23:-0.657648
32 1:-0.195155 2:-0.195195 3:-0.194364 4:-0.935536 5:-0.724267 6:-0.850195 7:-0.849969 8:-0.98458 9:-0.933764 10:-0.929462 11:-0.967 12:-0.936883 13:-0.954343 14:-0.929462 15:-0.933697 16:-0.95036 17:-0.984283 18:0.377193 19:0.471577 20:1 21:-0.41769 22:-0.703704 23:-0.413559
7.087544797653378 1:-0.194597 2:-0.194499 3:-0.193914 4:-0.861762 5:-0.689924 6:-0.49276 7:-0.35101 8:-0.582939 9:-0.899555 10:-0.779006 11:-0.96364 12:-0.819726 13:-0.883609 14:-0.779006 15:-0.899489 16:-0.716078 17:-0.582701 18:0.730994 19:0.500527 20:1 21:-0.719806 22:0.0740741 23:-0.930079
32 1:-0.193483 2:-0.193613 3:-0.192772 4:-0.933666 5:-0.621308 6:-0.889354 7:-0.889338 8:-0.942868 9:-0.893997 10:-0.90731 11:-0.758238 12:-0.822258 13:-0.749976 14:-0.90731 15:-0.893931 16:-0.977609 17:-0.942576 18:0.614035 19:0.649015 20:1 21:-0.604397 22:-0.592593 23:-0.572119
16.73044225757709 1:-0.193423 2:-0.193617 3:-0.192611 4:-0.964774 5:-0.61762 6:-0.986049 7:-0.987759 8:-0.860724 9:-0.93764 10:-0.894723 11:-0.950937 12:-0.957663 13:-0.974519 14:-0.894723 15:-0.937572 16:-0.852067 17:-0.860445 18:0.473684 19:0.491866 20:1 21:0.0400141 22:-0.222222 23:-0.187371
0.6053695500640424 1:-0.19367 2:-0.19368 3:-0.192883 4:-0.93098 5:-0.632812 6:-0.938904 7:-0.938303 8:-0.8881 9:-0.860472 10:-0.843545 11:-0.74642 12:-0.936053 13:-0.75898 14:-0.843545 15:-0.860408 16:-0.891459 17:-0.887817 18:0.298246 19:0.470175 20:1 21:0.383661 22:-0.0740741 23:0.26294
1.689374248090845 1:-0.196085 2:-0.195902 3:-0.195246 4:-0.899344 5:-0.781487 6:-0.619474 7:-0.868968 8:-0.998235 9:-0.908038 10:-0.898098 11:-0.805336 12:-0.992814 13:-0.886586 14:-0.898098 15:-0.907971 16:-0.997852 17:-0.997935 18:0.660819 19:0.305624 20:1 21:-0.541659 22:-0.851852 23:-0.599034
8.482389256181063 1:-0.1964 2:-0.196505 3:-0.195507 4:-0.941161 5:-0.800862 6:-0.879059 7:-0.8769 8:-0.835214 9:-0.793691 10:-0.940431 11:-0.922921 12:-0.954411 13:-0.933033 14:-0.940431 15:-0.793628 16:-0.903122 17:-0.834939 18:0.637427 19:0.386002 20:1 21:-0.109654 22:-0.814815 23:-0.2657
0.518139346185526 1:-0.196477 2:-0.196523 3:-0.196029 4:-0.923641 5:-0.805608 6:-0.984606 7:-0.98629 8:-0.924068 9:-0.963795 10:-0.972371 11:-0.927998 12:-0.837614 13:-0.962165 14:-0.972371 15:-0.963727 16:-0.97534 17:-0.923779 18:0.675439 19:0.258744 20:1 21:-0.737433 22:-0.851852 23:-0.768116
0.22100433037259 1:-0.196971 2:-0.196975 3:-0.196151 4:-0.908853 5:-0.835989 6:-0.358926 7:-0.600637 8:-0.688961 9:-0.65168 10:-0.813646 11:-0.977128 12:-0.8495 13:-0.97602 14:-0.813646 15:-0.651622 16:-0.64482 17:-0.688708 18:0.131579 19:0.123684 20:1 21:0.730016 22:-0.777778 23:0.027668
31.74830100155222 1:-0.197394 2:-0.197536 3:-0.196629 4:-0.955814 5:-0.862004 6:-0.774667 7:-0.775248 8:-0.994139 9:-0.955313 10:-0.930835 11:-0.836075 12:-0.859253 13:-0.848769 14:-0.930835 15:-0.955245 16:-0.903309 17:-0.99384 18:0.660819 19:0.985363 20:1 21:-0.671451 22:-0.666667 23:-0.879227
6.529973497676624 1:-0.197462 2:-0.197583 3:-0.196686 4:-0.948786 5:-0.866194 6:-0.909366 7:-0.909903 8:-0.91411 9:-0.809194 10:-0.865352 11:-0.945336 12:-0.954697 13:-0.934638 14:-0.865352 15:-0.809131 16:-0.907846 17:-0.913823 18:0.789474 19:0.929523 20:1 21:-0.802054 22:-0.740741 23:-0.882246
9.711282862352377 1:-0.197451 2:-0.197531 3:-0.196686 4:-0.920061 5:-0.865505 6:-0.798768 7:-0.946285 8:-0.862573 9:-0.998921 10:-0.987451 11:-0.822473 12:-0.959495 13:-0.783254 14:-0.987451 15:-0.998851 16:-0.84266 17:-0.862293 18:0.807018 19:0.8188 20:1 21:-0.461085 22:-0.851852 23:-0.44953
32 1:-0.198047 2:-0.198141 3:-0.197307 4:-0.943135 5:-0.902153 6:-0.73902 7:-0.605582 8:-0.997352 9:-0.871415 10:-0.957697 11:-0.962943 12:-0.935696 13:-0.933756 14:-0.957697 15:-0.87135 16:-0.927715 17:-0.997053 18:0.590643 19:0.355034 20:1 21:-0.373377 22:-0.518519 23:-0.545894
32 1:-0.198069 2:-0.198175 3:-0.19733 4:-0.935827 5:-0.903521 6:-0.864627 7:-0.863729 8:-0.923718 9:-0.979588 10:-0.989008 11:-0.958227 12:-0.963256 13:-0.883193 14:-0.989008 15:-0.979519 16:-0.976127 17:-0.92343 18:0.707602 19:0.42062 20:1 21:-0.667907 22:-0.888889 23:-0.869346
11.9045384990311 1:-0.19799 2:-0.198015 3:-0.197349 4:-0.936641 5:-0.898687 6:-0.631982 7:-0.98629 8:-0.945232 9:-0.923552 10:-0.929631 11:-0.903248 12:-0.954269 13:-0.898849 14:-0.929631 15:-0.923485 16:-0.918374 17:-0.944941 18:0.605263 19:0.278405 20:1 21:-0.627001 22:-0.666667 23:-0.732574
19.67193333747738 1:-0.19798 2:-0.198015 3:-0.197181 4:-0.953399 5:-0.898036 6:-0.980276 7:-0.761048 8:-0.840942 9:-0.980552 10:-0.972064 11:-0.986633 12:-0.926798 13:-0.969582 14:-0.972064 15:-0.980483 16:-0.910061 17:-0.840666 18:0.614035 19:0.281197 20:1 21:-0.61823 22:-0.962963 23:-0.939614
32 1:-0.19793 2:-0.197859 3:-0.197185 4:-0.917044 5:-0.894959 6:-0.989272 7:-0.98957 8:-0.836313 9:-0.954001 10:-0.918892 11:-0.934745 12:-0.87027 13:-0.888705 14:-0.918892 15:-0.953933 16:-0.873645 17:-0.836037 18:0.555556 19:0.407794 20:1 21:-0.89893 22:-0.740741 23:-0.90942
25.71606391560902 1:-0.197865 2:-0.197943 3:-0.196957 4:-0.93436 5:-0.890971 6:-0.881416 7:-0.992166 8:-0.990642 9:-0.885224 10:-0.937601 11:-0.935684 12:-0.936371 13:-0.925646 14:-0.937601 15:-0.885158 16:-0.992127 17:-0.990343 18:0.614035 19:0.328965 20:1 21:-0.368623 22:-0.703704 23:-0.47412
32 1:-0.198124 2:-0.198231 3:-0.197399 4:-0.909065 5:-0.906947 6:-0.624284 7:-0.618558 8:-0.957821 9:-0.93576 10:-0.878576 11:-0.874608 12:-0.94142 13:-0.82188 14:-0.878576 15:-0.935692 16:-0.963184 17:-0.957528 18:0.497076 19:0.394697 20:1 21:-0.427055 22:-0.666667 23:-0.516469
32 1:-0.198367 2:-0.19849 3:-0.197654 4:-0.927442 5:-0.92185 6:-0.611055 7:-0.606317 8:-0.818795 9:-0.936827 10:-0.855181 11:-0.950836 12:-0.992655 13:-0.94393 14:-0.855181 15:-0.93676 16:-0.853735 17:-0.818522 18:0.415205 19:0.397743 20:1 21:-0.285418 22:-0.555556 23:-0.456522
15.24061356270045 1:-0.198377 2:-0.198309 3:-0.197654 4:-0.929457 5:-0.922497 6:-0.99086 7:-0.990011 8:-0.996337 9:-0.977651 10:-0.880755 11:-0.802023 12:-0.93345 13:-0.802138 14:-0.880755 15:-0.977582 16:-0.932586 17:-0.996037 18:0.461988 19:0.529276 20:1 21:-0.321123 22:-0.888889 23:-0.529791
5.379413656239238 1:-0.19841 2:-0.198309 3:-0.197654 4:-0.938742 5:-0.924513 6:-0.747438 7:-0.869751 8:-0.78281 9:-0.904139 10:-0.956685 11:-0.938582 12:-0.959707 13:-0.94755 14:-0.956685 15:-0.904072 16:-0.825259 17:-0.782543 18:0.535088 19:0.247746 20:1 21:0.217243 22:-0.37037 23:0.0300207
6.160641755828989 1:-0.198566 2:-0.19873 3:-0.197884 4:-0.914389 5:-0.934093 6:-0.61322 7:-0.602889 8:-0.990658 9:-0.923866 10:-0.889499 11:-0.993414 12:-0.89099 13:-0.981551 14:-0.889499 15:-0.923799 16:-0.919709 17:-0.99036 18:0.666667 19:0.239022 20:1 21:-0.524111 22:-1 23:-0.619382
18.80127648733491 1:-0.19886 2:-0.198842 3:-0.197998 4:-0.925248 5:-0.952222 6:-0.950931 7:-0.923369 8:-0.961418 9:-0.9537 10:-0.96411 11:-0.903195 12:-0.960788 13:-0.91957 14:-0.96411 15:-0.953632 16:-0.979877 17:-0.961124 18:0.754386 19:0.343063 20:1 21:-0.813874 22:-1 23:-0.967062
4.798814769906102 1:-0.199034 2:-0.199062 3:-0.198675 4:-0.823554 5:-0.962896 6:-0.55934 7:-0.873669 8:-0.957721 9:-0.804111 10:-0.755235 11:-0.831038 12:-0.981568 13:-0.923699 14:-0.755235 15:-0.804049 16:-0.790004 17:-0.957428 18:0.730994 19:0.317304 20:1 21:-0.303034 22:-0.814815 23:-0.362883
32 1:-0.199038 2:-0.199073 3:-0.198326 4:-0.914641 5:-0.963148 6:-0.981238 7:-0.981883 8:-0.927948 9:-0.979739 10:-0.968306 11:-0.96087 12:-0.995745 13:-0.954668 14:-0.968306 15:-0.97967 16:-0.944689 17:-0.927659 18:0.640351 19:0.394292 20:1 21:-0.50978 22:-0.814815 23:-0.572312
2.659044294306141 1:-0.198624 2:-0.198609 3:-0.198034 4:-0.88059 5:-0.937691 6:-0.888247 7:-0.987024 8:-0.835963 9:-0.828956 10:-0.947948 11:-0.832916 12:-0.993344 13:-0.850497 14:-0.947948 15:-0.828892 16:-0.835214 17:-0.835688 18:0.274854 19:0.271545 20:1 21:0.391067 22:-0.444444 23:0.269182
8.977194189219462 1:-0.198515 2:-0.198444 3:-0.198034 4:-0.878151 5:-0.930999 6:-0.737961 7:-0.881063 8:-0.905135 9:-0.790767 10:-0.727399 11:-0.647281 12:-0.779935 13:-0.696191 14:-0.727399 15:-0.790704 16:-0.853949 17:-0.904849 18:0.450292 19:0.425433 20:1 21:-0.134155 22:-0.703704 23:-0.229007
0.115028239580778 1:-0.198423 2:-0.198444 3:-0.197615 4:-0.900612 5:-0.925321 6:-0.749796 7:-0.994859 8:-0.958587 9:-0.943476 10:-0.920005 11:-0.740773 12:-0.97381 13:-0.830449 14:-0.920005 15:-0.943409 16:-0.896423 17:-0.958293 18:0.131579 19:-0.0157311 20:1 21:-0.289228 22:0.148148 23:-0.257246
0.2809891420741952 1:-0.197699 2:-0.197756 3:-0.197278 4:-0.922693 5:-0.880754 6:-0.742628 7:-0.866324 8:-0.95549 9:-0.975597 10:-0.962499 11:-0.990871 12:-0.873889 13:-0.978237 14:-0.962499 15:-0.975528 16:-0.965239 17:-0.955197 18:-0.263158 19:-0.15479 20:1 21:-0.735703 22:-0.703704 23:-0.897449
32 1:-0.198252 2:-0.197988 3:-0.197662 4:-0.884061 5:-0.914774 6:-0.870352 7:-0.739748 8:-0.77515 9:-0.741728 10:-0.764332 11:-0.754127 12:-0.705592 13:-0.758356 14:-0.764332 15:-0.741667 16:-0.815505 17:-0.774884 18:0.345029 19:0.348389 20:1 21:-0.228355 22:-0.592593 23:-0.412213
32 1:-0.198408 2:-0.198331 3:-0.197682 4:-0.926621 5:-0.924393 6:-0.708953 7:-0.9574 8:-0.78699 9:-0.830244 10:-0.93724 11:-0.914382 12:-0.872879 13:-0.914186 14:-0.93724 15:-0.83018 16:-0.81824 17:-0.786722 18:0.54386 19:0.569733 20:1 21:-0.855455 22:-0.444444 23:-0.915005
8.111609666132484 1:-0.198406 2:-0.198418 3:-0.197682 4:-0.926367 5:-0.924242 6:-0.936258 7:-0.805117 8:-0.70463 9:-0.665152 10:-0.806044 11:-0.779071 12:-0.829203 13:-0.772615 14:-0.806044 15:-0.665094 16:-0.739216 17:-0.704375 18:0.692982 19:0.600802 20:1 21:-0.857902 22:-0.925926 23:-0.855521
3.39222292474187 1:-0.198118 2:-0.197704 3:-0.197577 4:-0.650318 5:-0.906547 6:-0.629817 7:-0.491101 8:-0.389478 9:-0.201337 10:-0.2245 11:-0.0972749 12:-0.509012 13:-0.0482572 14:-0.2245 15:-0.201295 16:-0.263246 17:-0.38927 18:0.251462 19:0.0482469 20:1 21:-0.596681 22:-0.703704 23:-0.681478
3.710431649819072 1:-0.197428 2:-0.197285 3:-0.196781 4:-0.812521 5:-0.864071 6:-0.394333 7:-0.511813 8:-0.842873 9:-0.431237 10:-0.667485 11:-0.414573 12:-0.720338 13:-0.506127 14:-0.667485 15:-0.431187 16:-0.805123 17:-0.842597 18:0.324561 19:-0.242181 20:1 21:-0.9489 22:-0.444444 23:-0.981884
1.866494057297588 1:-0.197463 2:-0.197325 3:-0.196954 4:-0.790172 5:-0.86628 6:-0.937701 7:-0.931203 8:-0.700667 9:-0.453575 10:-0.662468 11:-0.451617 12:-0.663559 13:-0.439472 14:-0.662468 15:-0.453524 16:-0.735253 17:-0.700412 18:-0.122807 19:-0.244235 20:1 21:-0.557342 22:-0.0740741 23:-0.852843
22.67189231026347 1:-0.197324 2:-0.19706 3:-0.196602 4:-0.847493 5:-0.857695 6:-0.604705 7:-0.854229 8:-0.969094 9:-0.83456 10:-0.868689 11:-0.943753 12:-0.737135 13:-0.969711 14:-0.868689 15:-0.834497 16:-0.951881 17:-0.968799 18:0.309942 19:0.18853 20:1 21:-0.692931 22:-0.740741 23:-0.719807
0.8486999155692275 1:-0.197372 2:-0.197176 3:-0.197041 4:-0.759768 5:-0.860628 6:-0.721461 7:-0.326723 8:-0.486858 9:-0.196057 10:-0.501112 11:-0.32905 12:-0.595674 13:-0.400608 14:-0.501112 15:-0.196015 16:-0.475257 17:-0.486635 18:0.356725 19:0.0750121 20:1 21:-0.390619 22:-1 23:-0.690635
14.53018834864084 1:-0.197419 2:-0.197117 3:-0.196995 4:-0.784879 5:-0.863565 6:-0.603117 7:-0.891052 8:-0.890747 9:-0.907701 10:-0.911943 11:-0.916522 12:-0.745829 13:-0.878378 14:-0.911943 15:-0.907635 16:-0.965892 17:-0.890464 18:0.157895 19:0.00523967 20:1 21:-0.463596 22:-0.259259 23:-0.536232
2.939353294905521 1:-0.197145 2:-0.196726 3:-0.196643 4:-0.568522 5:-0.846668 6:-0.719199 7:-0.721043 8:-0.775001 9:-0.836301 10:-0.589821 11:-0.238596 12:-0.685193 13:-0.165052 14:-0.589821 15:-0.836237 16:-0.741525 17:-0.774735 18:0.263158 19:0.0996822 20:1 21:-0.810257 22:-0.851852 23:-0.863124
1.402452703921845 1:-0.197228 2:-0.196759 3:-0.196599 4:-0.84162 5:-0.851802 6:-0.000192428 7:-0.359236 8:-0.818395 9:-0.714957 10:-0.939457 11:-0.833486 12:-0.873472 13:-0.904319 14:-0.939457 15:-0.714897 16:-0.847557 17:-0.818123 18:0.309942 19:0.0182673 20:1 21:-0.50287 22:-0.962963 23:-0.559466
12.62975774856225 1:-0.197588 2:-0.197498 3:-0.19686 4:-0.883583 5:-0.873916 6:-0.911724 7:-0.835818 8:-0.665298 9:-0.692352 10:-0.752213 11:-0.648736 12:-0.682333 13:-0.634131 14:-0.752213 15:-0.692293 16:-0.655402 17:-0.665049 18:0.461988 19:0.379925 20:1 21:-0.86903 22:-0.62963 23:-0.981061
27.859600949744 1:-0.197729 2:-0.197854 3:-0.196903 4:-0.923703 5:-0.882608 6:-0.937605 7:-0.938107 8:-0.848885 9:-0.836115 10:-0.834226 11:-0.818006 12:-0.925926 13:-0.735533 14:-0.834226 15:-0.836051 16:-0.828088 17:-0.848608 18:0.54386 19:0.51015 20:1 21:-0.376131 22:-0.814815 23:-0.465525
32 1:-0.197745 2:-0.19783 3:-0.196903 4:-0.947085 5:-0.883616 6:-0.796363 7:-0.534386 8:-0.950894 9:-0.989881 10:-0.974043 11:-0.888043 12:-0.936607 13:-0.947317 14:-0.974043 15:-0.989812 16:-0.984294 17:-0.950601 18:0.473684 19:0.64958 20:1 21:-0.48705 22:-0.407407 23:-0.6407
4.755075327737843 1:-0.197654 2:-0.197308 3:-0.196847 4:-0.860874 5:-0.878024 6:-0.739116 7:-0.862407 8:-0.840958 9:-0.890365 10:-0.656639 11:-0.564815 12:-0.832275 13:-0.664444 14:-0.656639 15:-0.890299 16:-0.773764 17:-0.840683 18:0.695906 19:0.699277 20:1 21:-0.685286 22:-0.925926 23:-0.719807
2.370982510115205 1:-0.197955 2:-0.197818 3:-0.197312 4:-0.84895 5:-0.896539 6:-0.869871 7:-0.608226 8:-0.86542 9:-0.525625 10:-0.883194 11:-0.696391 12:-0.971956 13:-0.756402 14:-0.883194 15:-0.525572 16:-0.969295 17:-0.86514 18:-0.0175439 19:0.2114 20:1 21:-0.780841 22:-0.925926 23:-0.982163
2.661842082308285 1:-0.197973 2:-0.197818 3:-0.197312 4:-0.847495 5:-0.897601 6:-0.66532 7:-0.786657 8:-0.948196 9:-0.701995 10:-0.870983 11:-0.740457 12:-0.967317 13:-0.788118 14:-0.870983 15:-0.701936 16:-0.895129 17:-0.947904 18:-0.0175439 19:0.184378 20:1 21:-0.715978 22:-0.962963 23:-0.748207
2.346108237411487 1:-0.197991 2:-0.197843 3:-0.197155 4:-0.929112 5:-0.898751 6:-0.938038 7:-0.941584 8:-0.951676 9:-0.915789 10:-0.980594 11:-0.788179 12:-0.999714 13:-0.810952 14:-0.980594 15:-0.915722 16:-0.978289 17:-0.951384 18:-0.0263158 19:0.206225 20:1 21:-0.749558 22:-0.962963 23:-0.852437
4.30807220839301 1:-0.197976 2:-0.198069 3:-0.197075 4:-0.949095 5:-0.897842 6:-0.922403 7:-0.917738 8:-0.957338 9:-0.895238 10:-0.979075 11:-0.943988 12:-0.988157 13:-0.949149 14:-0.979075 15:-0.895172 16:-0.973832 17:-0.957045 18:-0.0350877 19:0.164681 20:1 21:-0.631006 22:-0.962963 23:-0.890119
6.145181510359238 1:-0.197945 2:-0.197909 3:-0.197077 4:-0.911071 5:-0.895917 6:-0.629143 7:-0.749835 8:-0.795682 9:-0.930178 10:-0.893894 11:-0.873696 12:-0.940922 13:-0.865969 14:-0.893894 15:-0.930111 16:-0.805683 17:-0.795413 18:-0.0292398 19:0.0743862 20:1 21:-0.564955 22:-0.962963 23:-0.639877
32 1:-0.197747 2:-0.197447 3:-0.196976 4:-0.834373 5:-0.883713 6:-0.73493 7:-0.732452 8:-0.905584 9:-0.968646 10:-0.975976 11:-0.971045 12:-0.852226 13:-0.908925 14:-0.975976 15:-0.968577 16:-0.888203 17:-0.905299 18:0.590643 19:0.565262 20:1 21:0.0267856 22:-0.740741 23:-0.0966184
4.972305275903978 1:-0.170832 2:-0.170813 3:-0.170695 4:-0.834611 5:0.775357 6:-0.758503 7:-0.496144 8:-0.482761 9:-0.635817 10:-0.722252 11:-0.716955 12:-0.863105 13:-0.66091 14:-0.722252 15:-0.63576 16:-0.585933 17:-0.482539 18:0.526316 19:0.184005 20:1 21:-0.737359 22:-0.62963 23:-0.72278
12.10634144510674 1:-0.170876 2:-0.170738 3:-0.170248 4:-0.847923 5:0.7726 6:-0.749844 7:-0.866814 8:-0.739366 9:-0.973612 10:-0.937562 11:-0.748412 12:-0.872674 13:-0.672977 14:-0.937562 15:-0.973544 16:-0.89685 17:-0.739105 18:0.602339 19:0.235732 20:1 21:-0.206082 22:-1 23:-0.310719
1.664752518621119 1:-0.171034 2:-0.17108 3:-0.170465 4:-0.906903 5:0.762876 6:-0.738298 7:-0.733627 8:-0.64162 9:-0.554589 10:-0.701158 11:-0.660145 12:-0.748134 13:-0.768529 14:-0.701158 15:-0.554534 16:-0.603413 17:-0.641374 18:0.614035 19:0.256827 20:1 21:-0.121322 22:-0.925926 23:-0.387509
10.35023029926179 1:-0.171173 2:-0.170297 3:-0.170471 4:-0.834735 5:0.754264 6:-0.936018 7:-0.941731 8:-0.921037 9:-0.965954 10:-0.965099 11:-0.857472 12:-0.824723 13:-0.695211 14:-0.965099 15:-0.965885 16:-0.947157 17:-0.920749 18:0.719298 19:0.520432 20:1 21:-0.410841 22:-0.962963 23:-0.884058
32 1:-0.171062 2:-0.171049 3:-0.170393 4:-0.904314 5:0.761153 6:-0.75273 7:-0.878076 8:-0.864587 9:-0.883565 10:-0.940784 11:-0.971494 12:-0.975639 13:-0.970967 14:-0.940784 15:-0.883499 16:-0.821456 17:-0.864308 18:0.672515 19:0.394642 20:1 21:-0.464813 22:-0.925926 23:-0.517651
4.73367356233589 1:-0.171168 2:-0.171237 3:-0.170603 4:-0.908645 5:0.754566 6:-0.880214 7:-0.994124 8:-0.793484 9:-0.949128 10:-0.929738 11:-0.920654 12:-0.870591 13:-0.942607 14:-0.929738 15:-0.94906 16:-0.837202 17:-0.793215 18:0.719298 19:0.527119 20:1 21:-0.48848 22:-0.925926 23:-0.93311
18.1597390646454 1:-0.171004 2:-0.171087 3:-0.170279 4:-0.912607 5:0.764721 6:-0.729158 7:-0.979434 8:-0.887567 9:-0.829373 10:-0.914014 11:-0.851905 12:-0.989199 13:-0.819123 14:-0.914014 15:-0.82931 16:-0.878168 17:-0.887284 18:0.587719 19:0.658447 20:1 21:-0.131693 22:-0.518519 23:-0.0378422
6.134569403581391 1:-0.171006 2:-0.170939 3:-0.17029 4:-0.925862 5:0.764599 6:-0.766681 7:-0.760069 8:-0.839943 9:-0.889947 10:-0.831326 11:-0.95258 12:-0.99167 13:-0.986035 14:-0.831326 15:-0.889881 16:-0.769414 17:-0.839667 18:0.745614 19:1 20:1 21:-0.0768193 22:-0.925926 23:-0.114332
6.728699181767056 1:-0.170943 2:-0.171007 3:-0.170365 4:-0.917999 5:0.76847 6:-0.62669 7:-0.621006 8:-0.919039 9:-0.824152 10:-0.98044 11:-0.920586 12:-0.961798 13:-0.892871 14:-0.98044 15:-0.824088 16:-0.90032 17:-0.918751 18:-0.0526316 19:-0.263348 20:1 21:-0.68724 22:-0.444444 23:-0.761844
1.847845565406638 1:-0.170998 2:-0.171007 3:-0.170365 4:-0.920463 5:0.765093 6:-0.737336 7:-0.859469 8:-0.640953 9:-0.680841 10:-0.809695 11:-0.974177 12:-0.901064 13:-0.974397 14:-0.809695 15:-0.680783 16:-0.604481 17:-0.640708 18:-0.184211 19:-0.287718 20:1 21:-0.70125 22:-0.888889 23:-0.707729
2.983111573760168 1:-0.170922 2:-0.171099 3:-0.170293 4:-0.932442 5:0.76976 6:-0.729158 7:-0.721386 8:-0.850267 9:-0.886698 10:-0.843906 11:-0.902276 12:-0.941918 13:-0.963371 14:-0.843906 15:-0.886632 16:-0.80611 17:-0.84999 18:0.491228 19:0.22604 20:1 21:-0.271325 22:-0.259259 23:-0.362465
5.733921192239855 1:-0.170915 2:-0.17094 3:-0.170127 4:-0.920189 5:0.770192 6:-0.613701 7:-0.606317 8:-0.907716 9:-0.971988 10:-0.876812 11:-0.959757 12:-0.963669 13:-0.897219 14:-0.876812 15:-0.971919 16:-0.820522 17:-0.90743 18:0.754386 19:0.38495 20:1 21:-0.77808 22:-1 23:-0.87747
25.82008606561179 1:-0.170952 2:-0.170975 3:-0.170343 4:-0.92275 5:0.767945 6:-0.727233 7:-0.720406 8:-0.975655 9:-0.960848 10:-0.974534 11:-0.989872 12:-0.961303 13:-0.960799 14:-0.974534 15:-0.96078 16:-0.981452 17:-0.975359 18:0.552632 19:0.727747 20:1 21:-0.375725 22:-0.703704 23:-0.889291
24.20194023882136 1:-0.170875 2:-0.170845 3:-0.170019 4:-0.915689 5:0.772671 6:-0.994708 7:-0.876607 8:-0.920371 9:-0.911414 10:-0.940554 11:-0.800661 12:-0.863493 13:-0.757688 14:-0.940554 15:-0.911348 16:-0.923939 17:-0.920083 18:0.578947 19:0.207752 20:1 21:-0.739442 22:-0.259259 23:-0.859464
0.6644554999436655 1:-0.170826 2:-0.170681 3:-0.17004 4:-0.92513 5:0.775739 6:-0.875403 7:-0.613661 8:-0.739699 9:-0.91095 10:-0.917389 11:-0.885306 12:-0.95357 13:-0.978562 14:-0.917389 15:-0.910884 16:-0.896183 17:-0.739438 18:0.72807 19:0.431551 20:1 21:-0.585474 22:-0.925926 23:-0.815547
11.73949182167415 1:-0.170372 2:-0.170463 3:-0.16964 4:-0.923781 5:0.803759 6:-0.867225 7:-0.879545 8:-0.778831 9:-0.883681 10:-0.899593 11:-0.95533 12:-0.930195 13:-0.929315 14:-0.899593 15:-0.883615 16:-0.788363 17:-0.778564 18:0.461988 19:0.197426 20:1 21:-0.67384 22:-0.592593 23:-0.834015
6.061278597462884 1:-0.170395 2:-0.170463 3:-0.169647 4:-0.914308 5:0.802366 6:-0.879251 7:-0.868772 8:-0.784492 9:-0.968274 10:-0.938943 11:-0.935879 12:-0.869602 13:-0.991057 14:-0.938943 15:-0.968206 16:-0.792099 17:-0.784225 18:0.412281 19:0.215891 20:1 21:-0.568333 22:-0.925926 23:-0.987923
8.13422331818146 1:-0.170442 2:-0.170468 3:-0.169661 4:-0.91102 5:0.799423 6:-0.98653 7:-0.757131 8:-0.748358 9:-0.766943 10:-0.884329 11:-0.968141 12:-0.974792 13:-0.997182 14:-0.884329 15:-0.766882 16:-0.764477 17:-0.748096 18:0.429825 19:0.173453 20:1 21:-0.43261 22:-0.703704 23:-0.518519
16.42514618009502 1:-0.170358 2:-0.1705 3:-0.169675 4:-0.961712 5:0.804614 6:-0.884543 7:-0.752234 8:-0.991641 9:-0.853394 10:-0.885403 11:-0.912068 12:-0.967977 13:-0.963678 14:-0.885403 15:-0.853329 16:-0.938484 17:-0.991342 18:0.461988 19:0.287266 20:1 21:-0.504001 22:-0.888889 23:-0.561873
32 1:-0.170335 2:-0.170491 3:-0.169667 4:-0.942734 5:0.806057 6:-0.757541 7:-0.989228 8:-0.910213 9:-0.962588 10:-0.979366 11:-0.995372 12:-0.970802 13:-0.915595 14:-0.979366 15:-0.96252 16:-0.928476 17:-0.909927 18:0.497076 19:0.507189 20:1 21:-0.560849 22:-0.62963 23:-0.608696
0.1404656110310686 1:-0.170346 2:-0.170342 3:-0.169514 4:-0.911783 5:0.805355 6:-0.516525 7:-0.633248 8:-0.753187 9:-0.772397 10:-0.869985 11:-0.912739 12:-0.859715 13:-0.854159 14:-0.869985 15:-0.772336 16:-0.769414 17:-0.752924 18:0.666667 19:0.255808 20:1 21:-0.584498 22:-0.925926 23:-0.683794
7.950233911647293 1:-0.170704 2:-0.170618 3:-0.170016 4:-0.912312 5:0.783262 6:-0.84269 7:-0.709144 8:-0.401167 9:-0.532773 10:-0.64455 11:-0.87377 12:-0.859009 13:-0.893544 14:-0.64455 15:-0.532719 16:-0.476644 17:-0.400957 18:0.701754 19:0.489347 20:1 21:-0.388871 22:-0.888889 23:-0.408696
1.978305523899092 1:-0.171967 2:-0.171819 3:-0.171701 4:-0.619086 5:0.705232 6:-0.729158 7:-0.888848 8:-0.703731 9:-0.584643 10:-0.547135 11:-0.339875 12:-0.34556 13:-0.285375 14:-0.547135 15:-0.584588 16:-0.691484 17:-0.703476 18:0.438596 19:0.145592 20:1 21:0.11032 22:-0.407407 23:-0.0766046
17.24656776723179 1:-0.170663 2:-0.170797 3:-0.169997 4:-0.922134 5:0.785801 6:-0.934574 7:-0.939772 8:-0.730207 9:-0.786438 10:-0.748638 11:-0.768265 12:-0.835316 13:-0.801912 14:-0.748638 15:-0.786376 16:-0.702026 17:-0.729948 18:1 19:0.612912 20:1 21:-0.545228 22:-0.925926 23:-0.628019
-32 1:-0.19842 2:-0.198341 3:-0.199001 4:-0.677914 5:-0.925119 6:-0.751576 7:-0.737055 8:-0.93654 9:-0.98944 10:-0.865705 11:-0.97362 12:-0.845457 13:-0.937731 14:-0.865705 15:-0.989371 16:-0.989004 17:-0.93625 18:0.578947 19:0.363291 20:1 21:-0.492958 22:-0.851852 23:-0.647428
-31.39507460366245 1:-0.198476 2:-0.198362 3:-0.197724 4:-0.852158 5:-0.928562 6:-0.979314 7:-0.852418 8:-0.771054 9:-0.678973 10:-0.604403 11:-0.491304 12:-0.715663 13:-0.534027 14:-0.604403 15:-0.678914 16:-0.674751 17:-0.770789 18:0.450292 19:0.326232 20:1 21:-0.64097 22:-0.444444 23:-0.68254
-0.2873211371707455 1:-0.197832 2:-0.196819 3:-0.197519 4:-0.205568 5:-0.888962 6:0.418964 7:0.310124 8:-0.0181755 9:-0.155721 10:-0.355841 11:-0.502975 12:-0.0665549 13:-0.322929 14:-0.355841 15:-0.155681 16:-0.267422 17:-0.0180229 18:-0.0760234 19:0.568198 20:1 21:-0.548583 22:-0.814815 23:-0.882436
-0.326018878048876 1:-0.196844 2:-0.196136 3:-0.197208 4:0.535463 5:-0.828173 6:1 7:0.784062 8:0.6451 9:0.840537 10:0.67481 11:0.711415 12:0.756909 13:0.912373 14:0.67481 15:0.840542 16:0.769521 17:0.645153 18:-0.0994152 19:0.515324 20:1 21:-0.455839 22:-0.851852 23:-0.54418
-32 1:-0.19732 2:-0.197463 3:-0.196447 4:-0.973627 5:-0.857429 6:-0.630009 7:-0.62179 8:-0.880973 9:-0.827169 10:-0.968344 11:-0.925389 12:-0.951063 13:-0.935098 14:-0.968344 15:-0.827105 16:-0.906298 17:-0.880691 18:0.649123 19:0.411889 20:1 21:-0.306136 22:-0.962963 23:-0.565217
-32 1:-0.197251 2:-0.197444 3:-0.196447 4:-0.957916 5:-0.853235 6:-0.766441 7:-0.891296 8:-0.983914 9:-0.950648 10:-0.871297 11:-0.935409 12:-0.857198 13:-0.944004 14:-0.871297 15:-0.95058 16:-0.88021 17:-0.983617 18:0.672515 19:0.295627 20:1 21:-0.253636 22:-0.888889 23:-0.439242
-31.84244057878872 1:-0.197241 2:-0.197444 3:-0.196446 4:-0.949894 5:-0.852609 6:-0.498773 7:-0.614396 8:-0.915525 9:-0.877461 10:-0.922942 11:-0.99949 12:-0.902176 13:-0.965233 14:-0.922942 15:-0.877395 16:-0.967961 17:-0.915238 18:0.438596 19:0.373967 20:1 21:-0.285883 22:-0.407407 23:-0.373839
-0.7462492880902433 1:-0.193949 2:-0.193583 3:-0.193958 4:-0.213096 5:-0.650004 6:-0.472988 7:-0.213074 8:-0.289933 9:0.244817 10:-0.0714965 11:0.269087 12:-0.0896973 13:0.316883 14:-0.0714965 15:0.244844 16:-0.150648 17:-0.28974 18:-0.567251 19:0.297676 20:1 21:-0.400038 22:-0.814815 23:-0.452036
-0.5150317315033233 1:-0.193943 2:-0.193941 3:-0.193389 4:-0.817857 5:-0.649643 6:-0.660365 7:-0.780634 8:-0.689227 9:-0.56104 10:-0.762016 11:-0.640265 12:-0.706542 13:-0.738179 14:-0.762016 15:-0.560986 16:-0.727567 17:-0.688974 18:-0.833333 19:-0.0308983 20:-1 21:-0.5578 22:-0.814815 23:-0.52864
-0.03434217834115724 1:-0.194262 2:-0.19415 3:-0.193591 4:-0.814509 5:-0.669245 6:-0.533362 7:-0.529441 8:-0.791736 9:-0.65407 10:-0.766357 11:-0.591054 12:-0.784712 13:-0.854362 14:-0.924714 15:-0.888489 16:-0.871763 17:-1 18:-0.964912 19:0.237243 20:-1 21:-1 22:-1 23:-1
-31.86238355190481 1:-0.196901 2:-0.1969 3:-0.196405 4:-0.88719 5:-0.831656 6:-0.370761 7:-0.74342 8:-0.922236 9:-0.975376 10:-0.972026 11:-0.974741 12:-0.897826 13:-0.833297 14:-0.972026 15:-0.975307 16:-0.939711 17:-0.921948 18:0.54386 19:0.351868 20:1 21:-0.186735 22:-0.740741 23:-0.25864
-32 1:-0.196898 2:-0.1969 3:-0.196228 4:-0.915808 5:-0.83148 6:-0.896859 7:-0.976203 8:-0.981117 9:-0.928368 10:-0.927015 11:-0.8677 12:-0.940269 13:-0.940212 14:-0.927015 15:-0.928301 16:-0.911342 17:-0.98082 18:0.614035 19:0.161653 20:1 21:-0.656632 22:-0.814815 23:-0.812098
-32 1:-0.196965 2:-0.1969 3:-0.196228 4:-0.905012 5:-0.835629 6:-0.385481 7:-0.499082 8:-0.931511 9:-0.86624 10:-0.999678 11:-0.816437 12:-0.94833 13:-0.851936 14:-0.999678 15:-0.866175 16:-0.984908 17:-0.931222 18:0.403509 19:0.149152 20:1 21:-0.702936 22:-0.481481 23:-0.728405
-16.3886424362089 1:-0.197016 2:-0.197029 3:-0.196354 4:-0.886076 5:-0.83876 6:-0.885505 7:-0.857706 8:-0.974822 9:-0.998596 10:-0.914766 11:-0.891128 12:-0.976116 13:-0.790262 14:-0.914766 15:-0.998526 16:-0.995463 17:-0.974527 18:0.149123 19:0.3726 20:1 21:-0.533176 22:-0.444444 23:-0.538552
-31.52068520610437 1:-0.197002 2:-0.197029 3:-0.196354 4:-0.881367 5:-0.83791 6:-0.756867 7:-0.993439 8:-0.955606 9:-0.940007 10:-0.915195 11:-0.963231 12:-0.947257 13:-0.896993 14:-0.915195 15:-0.939939 16:-0.965786 17:-0.955313 18:0.0614035 19:0.462613 20:1 21:-0.700199 22:-0.888889 23:-0.757978
-0.4908796815925244 1:-0.196945 2:-0.197049 3:-0.19621 4:-0.92508 5:-0.834358 6:-0.637562 7:-0.628694 8:-0.799412 9:-0.801941 10:-0.792552 11:-0.992555 12:-0.948659 13:-0.992497 14:-0.792552 15:-0.801879 16:-0.807605 17:-0.799143 18:0.0292398 19:0.463675 20:1 21:-0.696045 22:-0.851852 23:-0.731232
-2.47547352265771 1:-0.196676 2:-0.196191 3:-0.196046 4:-0.609783 5:-0.817858 6:-0.1995 7:-0.183743 8:-0.272932 9:-0.336176 10:-0.220718 11:-0.452442 12:-0.426898 13:-0.586171 14:-0.220718 15:-0.33613 16:-0.275936 17:-0.272741 18:-0.0292398 19:0.379129 20:1 21:-0.748331 22:-0.62963 23:-0.797792
-0.07545134591695163 1:-0.195833 2:-0.194829 3:-0.195886 4:0.572192 5:-0.765945 6:0.0496945 7:0.0652956 8:0.433122 9:0.683591 10:0.672962 11:0.778487 12:0.537836 13:0.769589 14:0.672962 15:0.683602 16:0.663048 17:0.433207 18:-0.0760234 19:0.404656 20:1 21:-0.643883 22:-0.814815 23:-0.720497
-0.1662413145523463 1:-0.193848 2:-0.193408 3:-0.193594 4:-0.515411 5:-0.64377 6:-0.676962 7:-0.675848 8:-0.500945 9:-0.242937 10:-0.439403 11:-0.177171 12:-0.0219719 13:-0.0425792 14:-0.439403 15:-0.242894 16:-0.355734 17:-0.50072 18:-0.517544 19:0.477748 20:1 21:-0.0887304 22:-0.518519 23:-0.156315
-1.866338224693205 1:-0.193415 2:-0.193453 3:-0.19268 4:-0.941222 5:-0.617138 6:-0.95959 7:-0.956274 8:-0.742197 9:-0.902595 10:-0.973529 11:-0.918467 12:-0.830206 13:-0.935392 14:-0.973529 15:-0.902529 16:-0.771749 17:-0.741935 18:-0.789474 19:-0.220803 20:1 21:-0.313143 22:-1 23:-0.387164
-4.912674187253513 1:-0.193495 2:-0.193453 3:-0.192789 4:-0.902814 5:-0.622083 6:-0.544042 7:-0.534974 8:-0.659487 9:-0.664816 10:-0.750341 11:-0.671634 12:-0.629717 13:-0.620588 14:-0.784091 15:-0.745137 16:-0.726886 17:-0.774502 18:-0.789474 19:-0.381222 20:1 21:-0.714516 22:-1 23:-0.815217
-3.053149122654802 1:-0.193661 2:-0.193796 3:-0.192789 4:-0.974006 5:-0.632289 6:-0.75018 7:-0.873522 8:-0.992373 9:-0.992341 10:-0.953202 11:-0.97967 12:-0.988242 13:-0.987505 14:-0.981338 15:-0.970028 16:-0.965532 17:-1 18:-0.789474 19:-0.381222 20:1 21:-0.714516 22:-1 23:-0.815217
-32 1:-0.196807 2:-0.196873 3:-0.195992 4:-0.940728 5:-0.825867 6:-0.853418 7:-0.895067 8:-0.747542 9:-0.74413 10:-0.849881 11:-0.870678 12:-0.84938 13:-0.811743 14:-0.849881 15:-0.744069 16:-0.784426 17:-0.74728 18:0.421053 19:0.450951 20:1 21:0.0963776 22:-0.814815 23:-0.116632
-32 1:-0.19676 2:-0.196873 3:-0.19592 4:-0.958582 5:-0.823006 6:-0.701063 7:-0.915143 8:-0.873912 9:-0.928983 10:-0.923771 11:-0.969932 12:-0.968291 13:-0.929891 14:-0.923771 15:-0.928916 16:-0.874699 17:-0.873632 18:0.403509 19:0.44628 20:1 21:-0.3741 22:-0.518519 23:-0.495687
-32 1:-0.196796 2:-0.196932 3:-0.195932 4:-0.94917 5:-0.825233 6:-0.996296 7:-0.869262 8:-0.868417 9:-0.969493 10:-0.965958 11:-0.980676 12:-0.974576 13:-0.990169 14:-0.965958 15:-0.969424 16:-0.895542 17:-0.868137 18:0.578947 19:0.321473 20:1 21:-0.437029 22:-0.851852 23:-0.611801
-11.36728064751238 1:-0.196812 2:-0.196927 3:-0.195939 4:-0.910112 5:-0.826173 6:-0.880791 7:-0.860644 8:-0.685597 9:-0.7735 10:-0.852612 11:-0.969697 12:-0.985593 13:-0.975848 14:-0.852612 15:-0.773438 16:-0.746209 17:-0.685344 18:0.342105 19:0.465719 20:1 21:-0.208314 22:-0.407407 23:-0.456419
-0.2633807542687909 1:-0.194809 2:-0.194221 3:-0.195056 4:-0.16881 5:-0.702912 6:0.279935 7:0.0460032 8:0.303571 9:0.418914 10:0.366963 11:0.209956 12:-0.412198 13:0.0939388 14:0.366963 15:0.418934 16:0.449249 17:0.303675 18:-0.146199 19:0.569067 20:1 21:-0.575732 22:-0.444444 23:-0.631707
-0.6676670248930674 1:-0.194049 2:-0.193609 3:-0.193597 4:-0.336938 5:-0.656172 6:-0.595757 7:-0.593096 8:-0.453038 9:-0.369631 10:-0.314582 11:-0.175065 12:-0.0397719 13:-0.0627433 14:-0.314582 15:-0.369583 16:-0.451291 17:-0.45282 18:-0.482456 19:0.425131 20:1 21:-0.241541 22:-0.666667 23:-0.234485
-32 1:-0.196996 2:-0.196983 3:-0.196493 4:-0.912595 5:-0.837532 6:-0.589936 7:-0.708459 8:-0.822725 9:-0.790511 10:-0.856148 11:-0.890122 12:-0.922487 13:-0.906493 14:-0.856148 15:-0.790449 16:-0.87638 17:-0.822452 18:0.526316 19:0.46772 20:1 21:-0.273425 22:-0.814815 23:-0.195748
-32 1:-0.196953 2:-0.197173 3:-0.196169 4:-0.951127 5:-0.834905 6:-0.802665 7:-0.668209 8:-0.949978 9:-0.973728 10:-0.89203 11:-0.908453 12:-0.986995 13:-0.915901 14:-0.89203 15:-0.97366 16:-0.913237 17:-0.949686 18:0.637427 19:0.619122 20:1 21:-0.604348 22:-0.888889 23:-0.962356
-32 1:-0.196916 2:-0.197064 3:-0.196055 4:-0.956436 5:-0.832587 6:-0.859047 7:-0.858196 8:-0.935174 9:-0.979101 10:-0.953394 11:-0.947838 12:-0.897134 13:-0.963433 14:-0.953394 15:-0.979032 16:-0.940926 17:-0.934884 18:0.614035 19:0.680279 20:1 21:-0.627814 22:-0.925926 23:-0.905289
-3.044873185137085 1:-0.1955 2:-0.195275 3:-0.194756 4:-0.867108 5:-0.74546 6:-0.545389 7:-0.919696 8:-0.925433 9:-0.907747 10:-0.959346 11:-0.93215 12:-0.966829 13:-0.871665 14:-0.959346 15:-0.907681 16:-0.885641 17:-0.925145 18:0.640351 19:0.833008 20:1 21:-0.29226 22:-0.962963 23:-0.326987
-4.271964899540516 1:-0.195503 2:-0.195275 3:-0.194756 4:-0.87251 5:-0.745624 6:-0.812383 7:-0.422353 8:-0.533583 9:-0.577924 10:-0.689131 11:-0.725037 12:-0.961967 13:-0.787254 14:-0.689131 15:-0.577869 16:-0.603173 17:-0.533353 18:0.657895 19:0.81964 20:1 21:-0.253684 22:-0.962963 23:-0.908548
-30.5266809267179 1:-0.195502 2:-0.19548 3:-0.194661 4:-0.92952 5:-0.745616 6:-0.787848 7:-0.652834 8:-0.905634 9:-0.973067 10:-0.932454 11:-0.974459 12:-0.978552 13:-0.993967 14:-0.932454 15:-0.972998 16:-0.862129 17:-0.905349 18:0.695906 19:0.635399 20:1 21:0.204149 22:-0.888889 23:0.0799814
-32 1:-0.19554 2:-0.195499 3:-0.194685 4:-0.928366 5:-0.747922 6:-0.617982 7:-0.742049 8:-0.95106 9:-0.862573 10:-0.970154 11:-0.823406 12:-0.934729 13:-0.819889 14:-0.970154 15:-0.862508 16:-0.957606 17:-0.950768 18:0.497076 19:0.390917 20:1 21:-0.593142 22:-0.333333 23:-0.937671
-0.03449723010953277 1:-0.193745 2:-0.193194 3:-0.194169 4:0.361687 5:-0.637432 6:0.804686 7:0.710564 8:0.615859 9:1 10:0.701757 11:0.600719 12:0.319533 13:0.674232 14:0.701757 15:1 16:0.728194 17:0.615917 18:-0.146199 19:0.742013 20:1 21:-0.438254 22:-0.481481 23:-0.636232
-32 1:-0.194481 2:-0.194499 3:-0.193788 4:-0.893739 5:-0.682764 6:-0.899745 7:-0.973999 8:-0.887151 9:-0.967276 10:-0.916453 11:-0.945329 12:-0.932038 13:-0.972602 14:-0.916453 15:-0.967208 16:-0.899452 17:-0.886868 18:0.473684 19:0.4867 20:1 21:-0.70087 22:-0.814815 23:-0.776398
-32 1:-0.194449 2:-0.194377 3:-0.193794 4:-0.869578 5:-0.680813 6:-0.729398 7:-0.719672 8:-0.780895 9:-0.813592 10:-0.884253 11:-0.735266 12:-0.996472 13:-0.803516 14:-0.884253 15:-0.813529 16:-0.986269 17:-0.780629 18:0.614035 19:0.43828 20:1 21:-0.804524 22:-0.62963 23:-0.832494
-22.09484672088722 1:-0.194492 2:-0.194377 3:-0.193796 4:-0.844156 5:-0.683437 6:-0.974792 7:-0.976986 8:-0.755268 9:-0.997412 10:-0.89875 11:-0.943874 12:-0.862007 13:-0.90095 14:-0.89875 15:-0.997343 16:-0.803642 17:-0.755005 18:0.491228 19:0.462261 20:1 21:-0.804506 22:-0.222222 23:-0.921325
-0.9449476696214407 1:-0.19408 2:-0.192644 3:-0.193821 4:-0.0171939 5:-0.658073 6:0.522105 7:1 8:0.596626 9:0.6349 10:0.115886 11:-0.375457 12:0.14148 13:0.0357496 14:0.115886 15:0.634913 16:0.263486 17:0.596687 18:0.0994152 19:0.724821 20:1 21:-0.498656 22:-0.555556 23:-0.545151
-32 1:-0.193702 2:-0.193045 3:-0.192925 4:-0.874747 5:-0.634831 6:-0.703469 7:-0.824997 8:-0.958637 9:-0.973264 10:-0.985127 11:-0.950601 12:-0.969287 13:-0.98081 14:-0.985127 15:-0.973195 16:-0.936509 17:-0.958343 18:0.578947 19:0.903761 20:1 21:-0.458442 22:-0.888889 23:-0.513458
-16.32020506224926 1:-0.193708 2:-0.19394 3:-0.192925 4:-0.955191 5:-0.635174 6:-0.783326 7:-0.838414 8:-0.98478 9:-0.86964 10:-0.923364 11:-0.890498 12:-0.978178 13:-0.916649 14:-0.923364 15:-0.869575 16:-0.957899 17:-0.984483 18:0.535088 19:0.690773 20:1 21:-0.0457567 22:-0.888889 23:-0.00780379
-14.2721083664961 1:-0.19365 2:-0.193806 3:-0.192784 4:-0.961909 5:-0.631597 6:-0.643527 7:-0.635108 8:-0.756467 9:-0.745998 10:-0.794362 11:-0.922431 12:-0.903232 13:-0.926565 14:-0.794362 15:-0.745937 16:-0.808152 17:-0.756204 18:0.415205 19:0.585045 20:1 21:-0.0273286 22:-0.333333 23:-0.544513
-32 1:-0.197415 2:-0.197367 3:-0.197045 4:-0.857938 5:-0.863272 6:-0.889065 7:-0.884147 8:-0.904102 9:-0.942444 10:-0.983455 11:-0.92443 12:-0.982666 13:-0.911657 14:-0.983455 15:-0.942376 16:-0.922297 17:-0.903817 18:0.736842 19:0.572308 20:1 21:-0.0145334 22:-0.62963 23:0.00586611
-32 1:-0.197399 2:-0.197367 3:-0.197045 4:-0.853983 5:-0.862347 6:-0.727378 7:-0.850655 8:-0.839193 9:-0.889587 10:-0.873836 11:-0.801117 12:-0.994319 13:-0.885484 14:-0.873836 15:-0.889521 16:-0.838803 17:-0.838918 18:0.637427 19:0.177419 20:1 21:-0.352127 22:-1 23:-0.488635
-32 1:-0.197435 2:-0.197519 3:-0.196863 4:-0.911607 5:-0.864529 6:-0.783855 7:-0.779312 8:-0.908881 9:-0.919978 10:-0.930436 11:-0.892349 12:-0.960767 13:-0.868296 14:-0.930436 15:-0.919911 16:-0.960435 17:-0.908595 18:0.660819 19:0.157387 20:1 21:-0.434105 22:-0.777778 23:-0.549206
-18.28392539937677 1:-0.197411 2:-0.197486 3:-0.196685 4:-0.927698 5:-0.863077 6:-0.896811 7:-0.852075 8:-0.806423 9:-0.765458 10:-0.855389 11:-0.848739 12:-0.892805 13:-0.908808 14:-0.855389 15:-0.765397 16:-0.874125 17:-0.806152 18:0.412281 19:0.461043 20:1 21:-0.218858 22:-0.185185 23:-0.151839
-0.4245995366367735 1:-0.19622 2:-0.195168 3:-0.196302 4:0.910386 5:-0.789742 6:0.682542 7:0.842086 8:1 9:0.824674 10:0.884061 11:0.766924 12:1 13:0.840433 14:0.884061 15:0.82468 16:0.995143 17:1 18:-0.157895 19:0.679223 20:1 21:-0.631991 22:-0.814815 23:-0.675262
-32 1:-0.198905 2:-0.198842 3:-0.198192 4:-0.922818 5:-0.954933 6:-0.959109 7:-0.780634 8:-0.90227 9:-0.876115 10:-0.988602 11:-0.981508 12:-0.929136 13:-0.999779 14:-0.988602 15:-0.876049 16:-0.928195 17:-0.901985 18:0.763158 19:0.391458 20:1 21:-0.747852 22:-0.962963 23:-0.804463
-32 1:-0.199008 2:-0.198862 3:-0.198215 4:-0.910764 5:-0.961318 6:-0.863761 7:-0.862798 8:-0.895876 9:-0.894264 10:-0.944588 11:-0.809247 12:-0.809126 13:-0.729592 14:-0.944588 15:-0.894198 16:-0.982066 17:-0.895592 18:0.695906 19:0.481153 20:1 21:-0.549885 22:-0.888889 23:-0.59025
-32 1:-0.199078 2:-0.199053 3:-0.198215 4:-0.931535 5:-0.96562 6:-0.879059 7:-0.994614 8:-0.968461 9:-0.917066 10:-0.924124 11:-0.989101 12:-0.969513 13:-0.961607 14:-0.924124 15:-0.916999 16:-0.976301 17:-0.968166 18:0.710526 19:0.588951 20:1 21:-0.774015 22:-0.962963 23:-0.806063
-1.075507226512834 1:-0.199099 2:-0.199053 3:-0.198216 4:-0.929327 5:-0.966915 6:-0.868043 7:-0.990892 8:-0.702299 9:-0.908966 10:-0.943162 11:-0.979691 12:-0.942356 13:-0.983039 14:-0.943162 15:-0.908899 16:-0.79709 17:-0.702044 18:0.517544 19:0.570194 20:1 21:-0.712617 22:-0.333333 23:-0.751394
-0.2804392687056938 1:-0.197302 2:-0.196747 3:-0.197155 4:-0.108021 5:-0.856373 6:0.0275653 7:0.0421839 8:0.062053 9:0.505341 10:0.18011 11:0.415593 12:0.142119 13:0.49972 14:0.18011 15:0.505358 16:0.134488 17:0.0621935 18:-0.289474 19:0.517465 20:1 21:-0.623894 22:-1 23:-0.782609
-0.5915793007554109 1:-0.196489 2:-0.196124 3:-0.196372 4:-0.308902 5:-0.806348 6:-0.716457 7:-0.459028 8:0.033262 9:0.0328454 10:0.0107003 11:0.141569 12:-0.0321978 13:0.13834 14:0.0107003 15:0.032879 16:0.0793907 17:0.0334069 18:-0.596491 19:0.375244 20:1 21:-0.398353 22:-0.518519 23:-0.381673
-32 1:-0.198389 2:-0.198418 3:-0.197759 4:-0.915287 5:-0.923212 6:-0.951412 7:-0.789938 8:-0.823524 9:-0.894971 10:-0.937739 11:-0.883375 12:-0.883747 13:-0.909427 14:-0.937739 15:-0.894905 16:-0.902508 17:-0.823251 18:0.666667 19:0.616568 20:1 21:-0.924216 22:-0.666667 23:-0.937888
-32 1:-0.198382 2:-0.19843 3:-0.197759 4:-0.92242 5:-0.922781 6:-0.979795 7:-0.890317 8:-0.851482 9:-0.843159 10:-0.925175 11:-0.954948 12:-0.84105 13:-0.956095 14:-0.925175 15:-0.843095 16:-0.887416 17:-0.851205 18:0.590643 19:0.544474 20:1 21:-0.703783 22:-1 23:-0.736524
-32 1:-0.198343 2:-0.198446 3:-0.197624 4:-0.9418 5:-0.920377 6:-0.885986 7:-0.754486 8:-0.993373 9:-0.926163 10:-0.945325 11:-0.922592 12:-0.949725 13:-0.940659 14:-0.945325 15:-0.926096 16:-0.885961 17:-0.993074 18:0.590643 19:0.549552 20:1 21:-0.688417 22:-0.814815 23:-0.907246
-0.4239125945244843 1:-0.195177 2:-0.195121 3:-0.194487 4:-0.861103 5:-0.725562 6:-0.767162 7:-0.891492 8:-0.724562 9:-0.667264 10:-0.667692 11:-0.692648 12:-0.793159 13:-0.787438 14:-0.667692 15:-0.667206 16:-0.707711 17:-0.724304 18:-0.736842 19:0.0250078 20:-1 21:-0.622178 22:-0.62963 23:-0.911834
-0.01529928480118001 1:-0.195308 2:-0.195322 3:-0.194647 4:-0.879791 5:-0.733632 6:-0.509068 7:-0.371037 8:-0.445711 9:-0.616949 10:-0.810087 11:-0.741041 12:-0.907275 13:-0.858747 14:-0.744535 15:-0.764097 16:-0.828595 17:-0.786139 18:-1 19:0.0600144 20:-1 21:-0.671434 22:-1 23:-0.787332
-0.574238695368549 1:-0.195395 2:-0.195668 3:-0.194647 4:-0.901847 5:-0.738978 6:-0.509549 7:-0.630065 8:-0.978486 9:-0.980482 10:-1 11:-1 12:-0.961289 13:-0.972988 14:-0.94205 15:-1 16:-1 17:-1 18:-1 19:0.158342 20:-1 21:-1 22:-1 23:-1
-31.01124183870268 1:-0.197743 2:-0.197308 3:-0.19715 4:-0.80199 5:-0.883461 6:-0.967672 7:-0.84189 8:-0.985746 9:-0.831509 10:-0.933857 11:-0.97849 12:-0.591338 13:-0.968529 14:-0.933857 15:-0.831445 16:-0.988337 17:-0.985448 18:0.625731 19:0.539556 20:1 21:-0.522963 22:-0.814815 23:-0.563946
-32 1:-0.197803 2:-0.197717 3:-0.19715 4:-0.913048 5:-0.887154 6:-0.706211 7:-0.569005 8:-0.637973 9:-0.595505 10:-0.724062 11:-0.705519 12:-0.789359 13:-0.674937 14:-0.724062 15:-0.595449 16:-0.655415 17:-0.637727 18:0.657895 19:0.634524 20:1 21:-0.402893 22:-0.962963 23:-0.807183
-32 1:-0.197709 2:-0.197717 3:-0.196891 4:-0.941158 5:-0.881418 6:-0.660846 7:-0.908189 8:-0.902287 9:-0.792519 10:-0.787282 11:-0.877278 12:-0.98601 13:-0.885288 14:-0.787282 15:-0.792456 16:-0.858152 17:-0.902002 18:0.614035 19:0.693342 20:1 21:-0.398827 22:-0.888889 23:-0.507585
-32 1:-0.197677 2:-0.197356 3:-0.196891 4:-0.922814 5:-0.879425 6:-0.9962 7:-0.86652 8:-0.69339 9:-0.993049 10:-0.917251 11:-0.86772 12:-0.94654 13:-0.837119 14:-0.917251 15:-0.99298 16:-0.752907 17:-0.693136 18:0.520468 19:0.773781 20:1 21:-0.908526 22:-0.518519 23:-0.920089
-0.7463798541665818 1:-0.196307 2:-0.195207 3:-0.19684 4:0.92438 5:-0.795143 6:0.192091 7:0.209206 8:0.783993 9:0.995463 10:1 11:1 12:0.667669 13:1 14:1 15:0.995463 16:0.958687 17:0.784025 18:-0.157895 19:0.620741 20:1 21:-0.866147 22:-0.777778 23:-0.899398
-32 1:-0.198053 2:-0.197702 3:-0.197357 4:-0.846111 5:-0.902531 6:-0.696252 7:-0.816379 8:-0.990292 9:-0.733698 10:-0.877549 11:-0.696337 12:-0.843875 13:-0.697294 14:-0.877549 15:-0.733637 16:-0.953042 17:-0.989994 18:0.660819 19:0.41763 20:1 21:-0.595084 22:-0.777778 23:-0.658203
-15.75420660498074 1:-0.197951 2:-0.197702 3:-0.197206 4:-0.836465 5:-0.896247 6:-0.597729 7:-0.588787 8:-0.890098 9:-0.601307 10:-0.622774 11:-0.559845 12:-0.86855 13:-0.563336 14:-0.622774 15:-0.601251 16:-0.911689 17:-0.889815 18:0.625731 19:0.370607 20:1 21:-0.784619 22:-0.740741 23:-0.857499
-32 1:-0.197998 2:-0.19787 3:-0.197242 4:-0.885749 5:-0.899175 6:-0.960071 7:-0.834007 8:-0.897142 9:-0.970607 10:-0.959492 11:-0.990523 12:-0.777544 13:-0.991994 14:-0.959492 15:-0.970538 16:-0.956778 17:-0.896857 18:0.684211 19:0.399538 20:1 21:-0.771147 22:-0.962963 23:-0.79086
-32 1:-0.198072 2:-0.198227 3:-0.197242 4:-0.948849 5:-0.903696 6:-0.681772 7:-0.671588 8:-0.99239 9:-0.904684 10:-0.946 11:-0.945048 12:-0.998058 13:-0.981306 14:-0.946 15:-0.904618 16:-0.912476 17:-0.992092 18:0.508772 19:0.575832 20:1 21:-0.307474 22:-0.592593 23:-0.426646
-0.1578629720129112 1:-0.196956 2:-0.195842 3:-0.197094 4:0.719689 5:-0.83505 6:0.249146 7:0.65729 8:0.915975 9:0.772838 10:0.713216 11:0.855178 12:0.841823 13:0.995094 14:0.713216 15:0.772846 16:0.852281 17:0.915988 18:-0.114035 19:0.78588 20:1 21:-0.508362 22:-0.407407 23:-0.642512
-0.4067844612425801 1:-0.194958 2:-0.194805 3:-0.194705 4:-0.686941 5:-0.712113 6:-0.982681 7:-0.890807 8:-0.935108 9:-0.525648 10:-0.783539 11:-0.491505 12:-0.965039 13:-0.54338 14:-0.783539 15:-0.525595 16:-0.919989 17:-0.934818 18:-0.719298 19:0.222432 20:1 21:-0.794837 22:-1 23:-0.867206
-0.5946473961700433 1:-0.194957 2:-0.194805 3:-0.194705 4:-0.510281 5:-0.712053 6:-0.77967 7:-0.384013 8:-0.617541 9:-0.428498 10:-0.49098 11:-0.284292 12:-0.539912 13:-0.491273 14:-0.742809 15:-0.795381 16:-0.76469 17:-0.790552 18:-0.719298 19:0.161034 20:1 21:-1 22:-1 23:-1
-32 1:-0.171138 2:-0.170297 3:-0.170559 4:-0.833585 5:0.756434 6:-0.774859 7:-0.769372 8:-0.838278 9:-0.968274 10:-0.951216 11:-0.816088 12:-0.898804 13:-0.815571 14:-0.951216 15:-0.968206 16:-0.897918 17:-0.838002 18:0.730994 19:0.587695 20:1 21:-0.434964 22:-1 23:-0.640832
-28.00698489127404 1:-0.171243 2:-0.171181 3:-0.170559 4:-0.888493 5:0.749986 6:-0.86963 7:-0.869262 8:-0.867585 9:-0.813244 10:-0.869602 11:-0.854856 12:-0.831078 13:-0.814346 14:-0.869602 15:-0.813181 16:-0.821456 17:-0.867305 18:0.695906 19:0.597674 20:1 21:-0.474098 22:-0.962963 23:-0.530485
-0.6350349787834441 1:-0.171321 2:-0.171208 3:-0.171111 4:-0.86168 5:0.745138 6:-0.584837 7:-0.704248 8:-0.576178 9:-0.776923 10:-0.951216 11:-0.809515 12:-0.980724 13:-0.844849 14:-0.951216 15:-0.776861 16:-0.758338 17:-0.575942 18:0.535088 19:0.675006 20:1 21:-0.432226 22:-0.222222 23:-0.867208
-0.1866376798016267 1:-0.170713 2:-0.16972 3:-0.170439 4:-0.111144 5:0.782693 6:0.484582 7:0.000367242 8:0.32302 9:0.15094 10:0.298995 11:0.0219796 12:0.0722681 13:-0.0713002 14:0.298995 15:0.15097 16:0.368037 17:0.323122 18:0.00584795 19:0.614773 20:1 21:-0.65376 22:-0.814815 23:-0.780901
-0.4261353619266551 1:-0.169658 2:-0.168845 3:-0.169597 4:0.423641 5:0.847837 6:0.13773 7:0.286326 8:0.226273 9:0.493029 10:0.524737 11:0.68794 12:0.586564 13:0.825978 14:0.524737 15:0.493046 16:0.471987 17:0.226389 18:0.00584795 19:0.491356 20:1 21:-0.801927 22:-0.777778 23:-0.907479
-0.8797367471791709 1:-0.168604 2:-0.1681 3:-0.168292 4:-0.385406 5:0.912952 6:-0.576177 7:-0.57302 8:-0.609482 9:0.0322304 10:-0.242771 11:0.0217113 12:0.0498106 13:0.118029 14:-0.242771 15:0.0322641 16:-0.431141 17:-0.60924 18:-0.622807 19:0.253357 20:1 21:-0.331588 22:-0.888889 23:-0.354037
-0.06564799309112321 1:-0.168035 2:-0.168038 3:-0.167824 4:-0.712446 5:0.948131 6:-0.351999 7:-0.211654 8:-0.805806 9:-0.750698 10:-0.936028 11:-1 12:-0.970555 13:-0.92858 14:-0.876505 15:-0.813181 16:-1 17:-1 18:-0.684211 19:0.0141622 20:1 21:-0.759168 22:-1 23:-0.844119
-12.89535134770975 1:-0.17075 2:-0.170328 3:-0.170016 4:-0.883442 5:0.78041 6:-0.841728 7:-0.968662 8:-0.974156 9:-0.997749 10:-0.939173 11:-0.90241 12:-0.969036 13:-0.976173 14:-0.939173 15:-0.997679 16:-0.904189 17:-0.973861 18:0.640351 19:0.631333 20:1 21:-0.625894 22:-0.814815 23:-0.634561
-32 1:-0.170752 2:-0.170846 3:-0.170213 4:-0.923868 5:0.780269 6:-0.872035 7:-0.998041 8:-0.955506 9:-0.906657 10:-0.935645 11:-0.999665 12:-0.808197 13:-0.99853 14:-0.935645 15:-0.90659 16:-0.822924 17:-0.955213 18:0.625731 19:0.497267 20:1 21:-0.515899 22:-0.777778 23:-0.617696
-22.44940402704018 1:-0.170788 2:-0.170862 3:-0.169877 4:-0.924212 5:0.778062 6:-0.885505 7:-0.884931 8:-0.989476 9:-0.920582 10:-0.924906 11:-0.805625 12:-0.909891 13:-0.85661 14:-0.924906 15:-0.920515 16:-0.869895 17:-0.989178 18:0.508772 19:0.477198 20:1 21:-0.657612 22:-0.37037 23:-0.905578
-0.9735436455873885 1:-0.170455 2:-0.169441 3:-0.170045 4:-0.349878 5:0.798628 6:0.283494 7:0.307382 8:-0.0656331 9:-0.0800972 10:-0.0412672 11:-0.328808 12:-0.167066 13:-0.340563 14:-0.0412672 15:-0.0800596 16:-0.00346279 17:-0.0654735 18:-0.0643275 19:0.461268 20:1 21:-0.934958 22:-0.777778 23:-0.97641
-0.422463228136883 1:-0.169399 2:-0.168729 3:-0.169525 4:0.833787 5:0.863854 6:0.792466 7:0.822989 8:0.556312 9:0.912749 10:0.711437 11:0.858236 12:0.862798 13:0.952585 14:0.711437 15:0.912752 16:0.742873 17:0.556379 18:-0.140351 19:0.399014 20:1 21:-0.636644 22:-0.851852 23:-0.719815
-0.2585415733304931 1:-0.167969 2:-0.167395 3:-0.167995 4:-0.354095 5:0.952189 6:-0.400106 7:-0.392337 8:-0.468441 9:-0.251026 10:-0.331902 11:-0.064879 12:0.0378404 13:0.161763 14:-0.331902 15:-0.250982 16:-0.495326 17:-0.468221 18:-0.482456 19:0.412484 20:1 21:-0.191111 22:-0.481481 23:-0.309179
-22.36934685819425 1:-0.170653 2:-0.170057 3:-0.169961 4:-0.868498 5:0.786381 6:-0.816712 7:-0.9432 8:-0.858426 9:-0.960732 10:-0.978523 11:-0.89805 12:-0.834115 13:-0.789906 14:-0.978523 15:-0.960663 16:-0.836268 17:-0.858148 18:0.637427 19:0.53931 20:1 21:-0.412587 22:-0.814815 23:-0.485852
-32 1:-0.170577 2:-0.170057 3:-0.169961 4:-0.885982 5:0.791127 6:-0.959109 7:-0.828131 8:-0.611646 9:-0.711476 10:-0.845286 11:-0.987055 12:-0.97292 13:-0.998591 14:-0.845286 15:-0.711416 16:-0.645047 17:-0.611405 18:0.570175 19:0.308371 20:1 21:-0.45259 22:-0.925926 23:-0.396968
-32 1:-0.170527 2:-0.170633 3:-0.169815 4:-0.946694 5:0.794199 6:-0.64016 7:-0.630799 8:-0.882738 9:-0.9605 10:-0.969088 11:-0.910995 12:-0.932561 13:-0.970783 14:-0.969088 15:-0.960431 16:-0.942887 17:-0.882456 18:0.464912 19:0.206264 20:1 21:-0.768288 22:-0.555556 23:-0.951691
-32 1:-0.17051 2:-0.17064 3:-0.169814 4:-0.942652 5:0.795253 6:-0.732525 7:-0.856041 8:-0.879741 9:-0.822063 10:-0.847818 11:-0.774302 12:-0.931678 13:-0.777962 14:-0.847818 15:-0.821999 16:-0.834533 17:-0.879459 18:0.309942 19:0.308762 20:1 21:-0.288417 22:-0.444444 23:-0.372814
-0.6103492164303581 1:-0.169669 2:-0.168249 3:-0.169617 4:1 5:0.847191 6:0.664983 7:0.56641 8:0.57413 9:0.777793 10:0.858787 11:0.86984 12:0.711493 13:0.873999 14:0.858787 15:0.777801 16:0.773697 17:0.574194 18:0.0760234 19:0.423829 20:1 21:-0.227012 22:-0.925926 23:-0.312911
-0.3103236797403456 1:-0.168551 2:-0.168153 3:-0.169073 4:0.329661 5:0.916249 6:0.279646 7:0.426858 8:0.585619 9:0.645855 10:0.533635 11:0.552454 12:0.111604 13:0.681791 14:0.533635 15:0.645867 16:0.659339 17:0.585682 18:-0.0964912 19:0.573315 20:1 21:-0.401654 22:-0.481481 23:-0.498275
-0.2839101151937253 1:-0.167831 2:-0.16717 3:-0.167613 4:-0.0636949 5:0.960763 6:0.0405542 7:0.0552087 8:0.031447 9:0.278933 10:0.158625 11:0.366932 12:0.107402 13:0.474208 14:0.158625 15:0.278958 16:0.149994 17:0.0315921 18:-0.473684 19:0.306937 20:1 21:-0.418129 22:-0.518519 23:-0.382992
-3.224866688547885 1:-0.167467 2:-0.1676 3:-0.166535 4:-0.973472 5:0.983236 6:-0.991341 7:-0.988248 8:-0.861257 9:-0.877879 10:-0.846821 11:-1 12:-0.93708 13:-0.940708 14:-0.998159 15:-1 16:-1 17:-1 18:-0.719298 19:-0.167994 20:1 21:-1 22:-1 23:-1